{
  "format": "NEURH5",
  "version": 1,
  "timestamp": 1748793970,
  "metadata": {
    "model_name": "model_12",
    "accuracy": 0.780000,
    "loss": 0.191000,
    "validation_accuracy": 0.782000,
    "validation_loss": 0.222000,
    "epoch": 120,
    "optimizer": "adam",
    "strategy": "standard",
    "learning_rate": 0.002200,
    "batch_size": 32,
    "num_layers": 3
  },
  "architecture": {
    "layer_sizes": [20, 15, 5],
    "activation_types": [0, 0, 0]
  },
  "parameters": {
    "layers": [
      {
        "layer_id": 0,
        "input_size": 10,
        "output_size": 20,
        "activation_type": 0,
        "weights": [
          [0.43178010, 0.47640100, -0.40867987, 0.54041415, -0.28554627, -0.12275050, 0.35686576, -0.11849784, 0.09819991, -0.49936911],
          [0.19898763, -0.21980187, 0.20046979, -0.85030282, 0.03644913, -0.14514637, -0.03763094, 0.19060588, 0.04282871, -0.15285820],
          [0.09257471, -0.88666797, -0.59048724, 0.14068505, -0.02283986, 0.09501399, 0.35558659, -0.48244724, 1.22260475, 0.26182005],
          [-1.03265238, 0.84666383, -0.06848063, 0.31100968, 0.76554328, 0.23878059, 0.64873916, -0.31924060, 0.04919647, 0.38539955],
          [-0.03603161, 0.48934084, -0.09763549, 0.15387587, -0.00639149, 0.24553718, -0.08261206, -0.26498103, 0.53310198, -0.69904155],
          [-0.65569955, 0.26598290, -0.08910202, -0.27656165, 0.32107538, -0.30739146, 0.91142786, 0.11999545, -0.99986899, 0.45310488],
          [-0.06044602, 0.66760421, -0.34234336, -0.28156912, -0.29650813, -0.39918894, 0.01385543, -0.42155597, -0.46986902, -0.24586631],
          [-0.80352455, -0.46699727, -0.18195207, 0.27425811, -0.24582501, -0.47990510, 0.60442662, -0.11856995, 0.21204965, 0.87675387],
          [-0.87579644, 0.08011977, -1.27717626, 1.32025659, -0.21324854, -0.08141291, -0.12383520, 0.64447671, -0.33076060, 0.15802063],
          [-0.03972603, 0.01926025, 0.61803120, 0.27649540, 0.32160357, 0.02870113, -0.13642602, -0.16514760, -0.51150388, 0.04577913],
          [0.74820346, 0.50506932, -0.02157324, 0.26900449, -0.04689391, 0.36682272, -0.34963104, 0.06247789, 0.41366127, 0.17986681],
          [0.27963328, 0.89883256, -0.64140147, -0.62064755, 0.40811563, 0.16483082, 0.35831434, 0.36333653, 0.19032945, -0.09076658],
          [0.33674020, 0.54567254, 0.03508228, 0.02320618, -0.34018373, 1.26993573, 0.75103647, 0.41101155, 0.71529436, 0.39390400],
          [1.15086281, 0.36475387, -0.70817119, 0.07680312, -0.14076693, 0.36802801, -0.06495478, 0.33286729, -0.16187325, 0.24648353],
          [0.21067889, 0.27023825, -0.31735042, -0.80863649, 0.64703918, 0.12947211, -0.01569307, 0.19645409, -0.58086735, -0.49798727],
          [-0.12246805, 0.20621915, -0.95777601, 0.32470226, -0.46710324, 0.01799339, -0.23361629, 0.06206988, -0.75064826, 0.86421484],
          [0.91523975, 0.02435686, -0.22759549, -0.41168937, 0.76932406, 0.30611473, -0.10324910, -0.25210807, 0.30095470, 0.07349825],
          [-0.86999166, -0.44623372, -0.48744923, 0.84451360, 0.31792495, -0.07235334, 0.37437668, -0.38331184, -0.25277287, 0.26242498],
          [-0.03149278, 0.05863277, 0.03262133, -0.26218987, 0.29180011, -0.01185211, -0.78754884, -0.23284243, 0.27092862, 0.04419704],
          [0.00004921, 0.11967830, 0.12450983, -0.04196493, 0.12232283, 0.01930471, -0.32258648, 0.08263154, 0.33183646, -1.14778876]
        ],
        "biases": [0.00000000, 0.00000000, 0.00000000, 0.00000000, 0.00000000, 0.00000000, 0.00000000, 0.00000000, 0.00000000, 0.00000000, 0.00000000, 0.00000000, 0.00000000, 0.00000000, 0.00000000, 0.00000000, 0.00000000, 0.00000000, 0.00000000, 0.00000000]
      },
      {
        "layer_id": 1,
        "input_size": 20,
        "output_size": 15,
        "activation_type": 0,
        "weights": [
          [-0.24362662, 0.21662185, -0.29856914, 0.10510679, 0.23823330, 0.22668487, -0.09756835, -0.23532869, -0.26561502, -0.01973306, 0.40592909, -0.09027008, -0.12915277, -0.27631253, -0.11961193, 0.25744659, 0.19314769, 0.16506751, 0.22608587, -0.22759347],
          [-0.26793191, -0.03937050, -0.06492306, 0.24583739, -0.32333288, -0.40340847, 0.22205421, -0.08511305, -0.40308997, -0.22134721, 0.37473339, -0.22248064, 0.37132367, -0.39184701, -0.06256948, 0.05480722, 0.32179922, 0.29742864, -0.22791320, 0.15493825],
          [-0.26049247, -0.04485639, -0.34982944, -0.22468750, -0.28401059, -0.32043192, 0.32459325, 0.05587038, -0.02730934, -0.23231263, -0.08776297, -0.22429557, -0.32136199, -0.40183201, 0.21925841, 0.12575188, 0.25505304, -0.28689465, 0.06369421, -0.19676299],
          [0.35055205, -0.05182138, 0.17670044, 0.31433028, -0.19291581, -0.40802059, -0.28243005, -0.25480294, 0.34994140, -0.37822920, 0.26163781, 0.24869932, -0.25160146, 0.33215168, 0.39434689, -0.15307824, 0.05447007, -0.37659651, 0.37607294, -0.06638651],
          [-0.33582601, -0.04347597, -0.33505133, -0.27241004, 0.05175906, -0.39651033, 0.22809036, 0.33820575, 0.29222977, 0.17095643, -0.16821061, -0.05514182, -0.14848715, 0.20551471, 0.17002308, -0.12178696, 0.13720362, -0.21781123, 0.18243267, -0.22983259],
          [0.19089128, 0.33283570, 0.29847339, -0.05881191, 0.27419159, 0.08065719, 0.04066265, 0.25182822, 0.16727123, 0.00002354, 0.39543226, -0.12925278, -0.30097646, 0.22119999, -0.36487272, 0.33473706, -0.04075751, -0.19034874, -0.32307464, -0.20338254],
          [0.05880112, 0.37234554, 0.22033164, -0.05414816, -0.00961145, -0.06446888, -0.40141597, -0.24123526, -0.16757114, -0.07242101, 0.09562199, -0.18182038, -0.24481961, 0.03970146, -0.16900438, -0.14671169, 0.23500212, -0.25468045, -0.07555559, 0.40966323],
          [-0.26446122, 0.32666910, 0.16614148, 0.05882348, -0.07930598, 0.31088099, -0.19994876, -0.19542195, -0.29678586, 0.26636285, 0.16654681, 0.24592984, 0.40218416, -0.09692705, -0.22225808, -0.02857612, 0.00674246, -0.12603059, 0.02896377, -0.11583039],
          [0.05143982, 0.03519968, 0.35272688, 0.06485061, 0.19239983, 0.01663357, -0.33008608, 0.37027720, 0.23759718, 0.30036688, 0.29873389, 0.17943163, -0.15542406, 0.37629673, 0.38239503, 0.19412033, -0.04953529, -0.32050988, -0.15767162, -0.13522638],
          [0.32604954, -0.31033686, 0.23565917, 0.02329489, -0.16387680, -0.08758397, 0.30007315, 0.33065861, 0.14364214, 0.34408534, -0.25961620, -0.22269115, 0.14551584, 0.36802292, -0.38682234, -0.07749625, 0.08848255, -0.10285469, 0.34962776, 0.14731699],
          [0.00174315, 0.31440929, 0.30710658, 0.12551945, -0.33885413, 0.40400377, -0.15381105, 0.15934014, 0.02320659, 0.00841878, -0.10705297, 0.17571636, 0.33657497, 0.21034794, 0.24946831, 0.25182751, 0.15454932, -0.17277838, 0.18572347, -0.40269178],
          [-0.15365055, 0.37283549, 0.17455296, -0.17158271, 0.40736169, -0.02651728, -0.16953072, 0.11597567, -0.09437227, -0.34398642, 0.26571897, 0.11024243, -0.39569563, -0.15683240, -0.10738382, 0.41186026, 0.22579284, -0.18407448, -0.03782282, 0.27624032],
          [-0.26602346, -0.25939262, 0.22261013, 0.14897619, -0.26742426, 0.21141450, -0.04225877, 0.24839331, 0.40195450, 0.18354364, 0.22515084, -0.20929670, 0.02875104, -0.37955773, 0.29160887, -0.32775775, -0.24489215, -0.35155931, -0.31569868, 0.38048923],
          [-0.36872581, 0.16608047, -0.13858207, 0.23633172, -0.26624587, 0.14260697, 0.33597478, 0.06017385, 0.25745478, 0.33154625, 0.15634435, 0.18605283, 0.16455746, -0.06558677, -0.14418533, -0.36487034, 0.37504148, -0.01301319, -0.09967516, -0.03724635],
          [0.02802362, -0.18367708, 0.01665943, 0.10413085, 0.39661473, -0.12958361, -0.06494924, -0.19405027, 0.39927325, -0.16429576, 0.32332471, 0.26579410, -0.28282976, -0.34831285, -0.40586114, 0.40392268, 0.13920328, 0.26770970, -0.38241827, 0.24289091]
        ],
        "biases": [0.00000000, 0.00000000, 0.00000000, 0.00000000, 0.00000000, 0.00000000, 0.00000000, 0.00000000, 0.00000000, 0.00000000, 0.00000000, 0.00000000, 0.00000000, 0.00000000, 0.00000000]
      },
      {
        "layer_id": 2,
        "input_size": 15,
        "output_size": 5,
        "activation_type": 0,
        "weights": [
          [0.08881210, -0.10688338, -0.00777887, -0.08213083, -0.11331777, -0.23269957, -0.00144639, 0.27697253, -0.04812281, 0.10506797, 0.01030199, 0.02991897, 0.07942319, 0.14231466, 0.03222083],
          [0.24751587, -0.23564470, 0.42250517, -0.02122483, 0.42781824, -0.04596703, -0.05570784, -0.04948368, 0.48134673, -0.16916628, 0.21332154, -0.20511837, -0.00743723, 0.15479837, -0.07043485],
          [-0.19829576, -0.08782071, -0.18249924, 0.12098592, 0.16894357, -0.35597286, 0.35505038, -0.06954816, 0.23585549, 0.41665319, -0.34381908, 0.20512168, 0.30832162, -0.21817976, -0.17099805],
          [-0.01677914, 0.50071430, 0.39757818, -0.45232931, 0.09852076, 0.72688061, 0.51787341, 0.06633526, 0.08598933, -0.21757348, -0.04323316, 0.15736921, 0.24162799, -0.61466974, 0.11089104],
          [-0.03461754, 0.16779736, 0.08639146, -0.07866534, 0.10389955, 0.04590482, -0.33609030, -0.45741424, -0.14136048, 0.42882219, -0.18860209, -0.30949640, -0.09077369, -0.21843983, 0.37475300]
        ],
        "biases": [0.00000000, 0.00000000, 0.00000000, 0.00000000, 0.00000000]
      }
    ]
  }
}
