{
  "format": "NEURH5",
  "version": 1,
  "timestamp": 1748793970,
  "metadata": {
    "model_name": "model_7",
    "accuracy": 0.932000,
    "loss": 0.229000,
    "validation_accuracy": 0.886000,
    "validation_loss": 0.296000,
    "epoch": 70,
    "optimizer": "adam",
    "strategy": "standard",
    "learning_rate": 0.001700,
    "batch_size": 32,
    "num_layers": 3
  },
  "architecture": {
    "layer_sizes": [20, 15, 5],
    "activation_types": [0, 0, 0]
  },
  "parameters": {
    "layers": [
      {
        "layer_id": 0,
        "input_size": 10,
        "output_size": 20,
        "activation_type": 0,
        "weights": [
          [-0.36689433, 0.25186950, 0.06949017, 0.37349036, -0.01212492, 0.22030985, 0.27513528, -0.11735477, -0.92351401, 0.22366032],
          [-0.12109541, 0.30798253, 0.63827723, -0.69728863, -0.30308613, 0.48552477, 0.24465667, -0.28620189, 0.62785506, 0.19847319],
          [0.04026904, 0.16444191, 0.63081443, -0.92770654, -0.21023831, 0.56663048, 0.09973331, -0.00451033, 0.62015080, -0.98284715],
          [0.65916049, 0.11474701, 0.04591867, -0.25220737, 0.23918888, -0.10941517, -0.52199954, -0.66163957, -0.53077269, -0.44349200],
          [-1.29377770, -0.53226030, 0.11438680, 0.37336943, 0.25291649, 0.02194526, 0.40497249, -0.46152323, 0.41324824, 0.70290178],
          [0.24738131, -0.34329969, 0.28103840, -0.08786052, 0.19090456, -0.75648296, -0.88718444, -0.07793859, 0.09298316, 0.28512138],
          [-0.92434919, -0.02802961, 0.24022585, -0.14293642, -0.13314655, -0.31595713, 0.06992176, -0.15418534, 0.14902589, -0.75395393],
          [0.08031457, -0.51140571, -0.03178212, 0.65795845, -0.21014327, 0.28887361, -0.23727402, 0.22039184, 0.25684965, 0.07608500],
          [0.03830971, 0.55475610, -0.24061707, 0.55385417, 0.21815662, 0.73800683, -0.41262239, 0.41948640, 0.27019775, -0.18404701],
          [-0.26771843, 0.37688053, -0.33691886, -0.52841055, 0.17928073, 0.64703268, -0.12326099, -0.12020914, 0.61595410, -0.43440738],
          [0.68268079, -0.56441396, -0.13877599, 0.47198892, 0.07473499, -0.00540828, -0.24980806, -0.25224930, 0.16997702, -0.16620328],
          [0.02185927, -0.82893080, 0.14508231, -0.07176039, 0.55991417, 0.01751129, -0.52542847, 0.25951391, 0.81293440, -0.14970361],
          [0.31219205, 0.52568018, -0.10509215, 0.19590122, -0.21381429, -0.12834395, -0.06927306, 0.01386160, -0.31522322, -0.14036690],
          [0.18373220, -0.20391190, 0.02568302, -0.31977275, -0.13032320, -0.07428565, -0.95422363, -0.67118472, -0.18389432, -0.63974243],
          [0.33387449, -0.37660655, 0.10323048, 0.06357136, -0.43603036, 1.02867544, 0.10581619, -0.17153336, -0.00348928, 0.05834820],
          [-0.06370153, 0.11562936, -0.15600370, -0.35436070, 1.12116838, 0.51388574, -0.03361133, -0.78487474, 0.13717888, 0.20720372],
          [-0.13736486, -0.27721420, 0.41687864, -0.22801466, 0.01857604, 0.40510795, -0.46075213, -0.46393320, -0.05161508, -0.14154193],
          [-0.09707923, 0.40300459, -0.44595310, 0.11811332, -0.15160048, -0.86392754, 0.14711459, -0.39147785, 0.36827752, 0.16992816],
          [0.44161800, -0.09656287, -0.28728285, -0.09779596, 0.29078957, 0.14098738, -0.21387561, -0.04688718, 0.12129755, -0.34855202],
          [-0.61138266, 0.50211179, 0.02009748, -0.16110787, 0.20853461, -0.10542638, -0.57262468, -0.06074943, 0.31973702, -0.31545404]
        ],
        "biases": [0.00000000, 0.00000000, 0.00000000, 0.00000000, 0.00000000, 0.00000000, 0.00000000, 0.00000000, 0.00000000, 0.00000000, 0.00000000, 0.00000000, 0.00000000, 0.00000000, 0.00000000, 0.00000000, 0.00000000, 0.00000000, 0.00000000, 0.00000000]
      },
      {
        "layer_id": 1,
        "input_size": 20,
        "output_size": 15,
        "activation_type": 0,
        "weights": [
          [0.07544684, 0.24664922, 0.07139815, 0.10300012, -0.38948178, -0.05825387, -0.28380969, -0.25623050, 0.37103581, -0.26106986, 0.18805900, -0.06841558, 0.34045121, -0.06033340, 0.37308440, 0.21769048, 0.27233186, 0.29043198, -0.23315646, -0.19219624],
          [0.09268750, 0.18282545, -0.25309461, 0.07897766, -0.03254028, -0.37245530, -0.40912309, 0.23391142, -0.36824626, -0.05444783, -0.07791305, -0.29228452, -0.26320377, -0.06918368, -0.14772831, -0.28980169, 0.06188581, 0.04761848, 0.39934671, 0.24218203],
          [0.34640884, -0.12784064, 0.24679320, 0.00722799, -0.24663718, 0.13072009, 0.11975205, -0.38627616, -0.00661425, -0.20323873, -0.00863541, -0.22161247, 0.05730036, -0.00835864, 0.28979889, -0.10917655, 0.09212803, -0.11120516, -0.05173438, -0.01727356],
          [0.33884946, 0.34564364, 0.26120281, 0.39082772, 0.32135978, 0.36495599, 0.23617283, 0.37582922, -0.02257049, -0.08208137, 0.03752165, -0.36953208, -0.13544945, -0.11093683, 0.31801203, 0.40873072, -0.20386393, 0.24835096, -0.30990201, 0.09191703],
          [-0.34505579, -0.31735307, -0.09824094, 0.05350567, -0.02359515, 0.08586691, -0.17634140, -0.07638057, -0.20655085, -0.19445236, 0.26589963, -0.16566469, -0.32572231, 0.01338319, -0.30628103, -0.32838216, 0.02537994, 0.10044410, -0.28860882, 0.23654434],
          [-0.00467668, 0.06632846, 0.18836185, 0.05288639, 0.33311853, 0.08327022, 0.06918521, 0.17339247, 0.19841580, 0.10130855, 0.16314614, 0.22855236, -0.17727900, -0.10073428, 0.37980741, -0.23539293, 0.31064487, -0.02809708, -0.22277477, 0.39595100],
          [0.30807051, -0.23512280, -0.11742182, -0.19709167, -0.20499928, 0.21263422, -0.24398960, -0.08736771, -0.20554225, 0.19563402, -0.27921811, -0.09658574, -0.28252468, -0.18899420, 0.08420426, 0.03479648, 0.20104481, 0.39947334, -0.11302366, 0.02372370],
          [-0.40938771, -0.07326889, -0.07729440, 0.16844538, -0.13930210, -0.27192655, -0.10342287, -0.09112929, 0.33582252, -0.01542200, -0.00894802, 0.32112747, -0.22764206, -0.25655693, -0.14618123, 0.04149136, 0.10313897, 0.28801757, -0.23675159, -0.16585600],
          [-0.22910792, -0.05071824, -0.32846802, 0.23826508, -0.06711258, -0.11805954, -0.15023388, -0.16883272, 0.25440425, 0.40205440, 0.20631519, 0.37370518, -0.11425989, -0.05142679, 0.18396969, -0.06710643, -0.01451501, 0.32942340, 0.08475208, 0.13280731],
          [-0.40768057, -0.36429733, 0.06883413, 0.06922697, 0.04684633, -0.15686877, 0.10901935, -0.25020564, -0.22262785, 0.38170931, 0.26243731, -0.39112818, -0.40262958, 0.06380033, -0.07001274, -0.00413945, -0.01326841, -0.24902089, -0.18410598, 0.26086769],
          [-0.27378979, 0.04803076, -0.12360938, 0.14660244, 0.41302130, -0.13449733, 0.15808839, -0.31296661, -0.07389899, 0.09788424, -0.25231752, -0.10963903, -0.22821699, 0.01744061, -0.01544539, -0.40185601, -0.18395415, 0.32860869, -0.35832611, 0.22932316],
          [0.35646737, -0.00194638, 0.41030422, -0.25654286, 0.08959857, -0.39219794, -0.16414265, 0.41260162, 0.26412365, -0.20381695, 0.20992494, -0.23516086, 0.07111365, 0.28981069, 0.08946151, -0.21160576, 0.13980643, -0.36098579, 0.24425578, -0.40719897],
          [0.27731642, -0.39830220, -0.07717015, -0.22744058, -0.18267311, 0.32875526, -0.37949586, -0.32466379, 0.41403225, 0.29499260, 0.23382425, -0.17734414, -0.36789325, 0.08166181, 0.36328337, 0.27943084, 0.35939929, -0.41046107, 0.10449896, -0.04112355],
          [0.28209451, 0.41201657, 0.36841363, 0.38358745, 0.36199346, 0.12997845, 0.07619771, -0.38264582, -0.26917607, -0.24831167, 0.14246817, -0.34112921, 0.25838402, 0.21562196, 0.28592277, 0.16306663, -0.27940905, 0.00647060, 0.27324167, -0.15181604],
          [-0.26149979, -0.41324487, -0.31106967, 0.34105420, 0.13704720, -0.36257717, -0.00349154, 0.11118209, -0.33623520, -0.29586393, 0.02798289, -0.04049458, 0.08832880, -0.20263056, 0.27576354, 0.00154286, 0.26064208, 0.07504092, 0.04876520, -0.20087104]
        ],
        "biases": [0.00000000, 0.00000000, 0.00000000, 0.00000000, 0.00000000, 0.00000000, 0.00000000, 0.00000000, 0.00000000, 0.00000000, 0.00000000, 0.00000000, 0.00000000, 0.00000000, 0.00000000]
      },
      {
        "layer_id": 2,
        "input_size": 15,
        "output_size": 5,
        "activation_type": 0,
        "weights": [
          [-0.03385480, -0.39443254, 0.04441815, 0.13636702, 0.26001817, 0.32946572, 0.14494741, -0.02410530, -0.07957698, -0.06186865, -0.42348921, -0.30146992, -0.18344344, 0.45507532, -0.00776735],
          [0.39756879, -0.24214548, 0.12019691, -0.33438155, 0.13563527, 0.02011667, 0.29094294, 0.27493840, 0.49024093, -0.20760855, 0.04492535, -0.19196041, -0.14252879, -0.26155433, 0.60244453],
          [0.49666181, -0.00781701, -0.23598514, 0.04024411, -0.07491481, -0.00879014, 0.25235891, -0.08123614, -0.19821022, -0.06513207, -0.01544439, -0.04952955, 0.01214885, -0.11352579, 0.26607758],
          [-0.26249838, -0.05004324, 0.15853521, -0.44831949, -0.01067863, -0.50421327, 0.25695959, 0.47460967, -0.25120032, -0.48285890, -0.01295990, 0.00919653, -0.39871344, -0.03866591, -0.29644752],
          [0.42321873, -0.39712501, -0.26299003, -0.52855128, -0.43158561, 0.29520872, -0.17718360, -0.20051022, -0.26732346, 0.04870136, -0.05815339, 0.22911267, -0.30607986, 0.16513997, 0.07000537]
        ],
        "biases": [0.00000000, 0.00000000, 0.00000000, 0.00000000, 0.00000000]
      }
    ]
  }
}
