{
  "format": "NEURH5",
  "version": 1,
  "timestamp": 1748793970,
  "metadata": {
    "model_name": "model_11",
    "accuracy": 0.926000,
    "loss": 0.177000,
    "validation_accuracy": 0.975000,
    "validation_loss": 0.219000,
    "epoch": 110,
    "optimizer": "adam",
    "strategy": "standard",
    "learning_rate": 0.002100,
    "batch_size": 32,
    "num_layers": 3
  },
  "architecture": {
    "layer_sizes": [20, 15, 5],
    "activation_types": [0, 0, 0]
  },
  "parameters": {
    "layers": [
      {
        "layer_id": 0,
        "input_size": 10,
        "output_size": 20,
        "activation_type": 0,
        "weights": [
          [0.36445627, -0.09749732, 0.56281531, -0.29230589, 0.13250037, -0.23736377, -0.73549962, 0.15833965, 0.82464325, -0.18325581],
          [-0.07040919, -0.28311515, -0.00352768, -0.05287105, -0.49755266, -0.25954559, 0.93808812, 0.34877771, 0.37644500, 0.28165519],
          [-0.05305821, 0.57956606, -0.16319650, 0.50384074, 0.67838746, -0.23203267, -0.41890255, -0.36346990, -0.37066063, -0.09645980],
          [0.58031726, -0.54500389, -1.00654221, 0.78857356, 0.12885003, -0.09921945, -0.45890167, -0.14153142, 0.16808599, 1.19848990],
          [-0.16000351, -0.58842582, 0.07924478, 0.04226989, 0.53891575, -0.00285952, -0.00791671, 0.25856447, -0.19978815, 0.05321383],
          [-0.47380632, 0.20435855, -0.08271737, 0.61942261, 0.40699646, 0.26027879, -0.24092646, 0.52800536, 0.11595446, -0.88986516],
          [-0.56294078, -0.21783116, -0.24981226, 0.40753138, -0.29513186, 0.06962838, 0.06735348, 0.31910482, -0.26311797, 0.25042030],
          [0.13033544, 0.28390828, 0.13988844, -0.46082869, -0.15403475, 0.07686801, -0.11217640, 0.33994362, 0.48119551, -0.84199333],
          [0.55611938, 0.34594026, -0.29451299, 0.09901731, -0.12606126, 0.06923266, 0.08752360, -0.89281505, -0.21943890, 0.12504014],
          [0.08584260, -0.21701881, -0.47195122, -0.91806924, 0.19837552, 0.24793869, -0.37095347, 0.30900940, 0.19485033, -0.60224134],
          [-0.20302886, 0.03217089, -0.31794524, -0.26653525, 0.10400517, -0.47194606, 0.18447211, 0.33890063, -0.05558876, -0.01707608],
          [-0.59670788, 0.38108167, 0.16920967, 0.38397089, -0.42690635, 0.46088952, 0.36690375, -0.23114266, 0.00542407, 0.43253955],
          [0.64080030, 0.54215831, -0.28583562, 0.42499688, -0.47106841, 0.14645833, 0.37476608, 0.10747001, -0.36124256, -0.16608658],
          [0.04779908, -0.49153176, -0.32888395, -0.46057642, -0.47314748, -0.04276704, -0.22409153, 0.09634852, 0.44644967, -0.05707749],
          [-0.17376670, 0.20512286, 0.64779514, 0.53147656, 0.08351143, 0.31113595, -0.31459129, -0.41131985, 0.09593123, 0.65358478],
          [-0.79802847, 0.12808076, 2.13710237, -0.22582273, -0.06104406, -0.05065416, 0.37915319, 0.02077719, -0.03534939, -0.54608446],
          [-0.12051654, 0.02600063, -0.78418201, -0.54545051, 0.79531479, -0.17720787, 0.00112352, -0.25887319, -0.08509133, 0.26400346],
          [-0.07122916, 0.37575707, -0.64745450, -0.61453116, 0.45475414, -0.18220605, -0.09603774, 0.06220481, 0.63486731, -0.02096528],
          [-0.00465907, -0.13311906, -0.69173408, -0.54261696, 0.66726863, -0.08455897, -0.24424168, 0.47349924, -0.24364844, -0.16521116],
          [-0.07766274, -0.86041033, 0.39555052, 0.50408250, 0.60762268, 0.28697920, -0.06129476, -0.19607937, 0.34472072, 0.03327449]
        ],
        "biases": [0.00000000, 0.00000000, 0.00000000, 0.00000000, 0.00000000, 0.00000000, 0.00000000, 0.00000000, 0.00000000, 0.00000000, 0.00000000, 0.00000000, 0.00000000, 0.00000000, 0.00000000, 0.00000000, 0.00000000, 0.00000000, 0.00000000, 0.00000000]
      },
      {
        "layer_id": 1,
        "input_size": 20,
        "output_size": 15,
        "activation_type": 0,
        "weights": [
          [-0.04044256, 0.13444543, -0.20204690, 0.14849249, -0.11633825, -0.20317532, 0.22880240, -0.11582656, 0.11611225, -0.28312379, -0.32173482, -0.04307583, -0.23467170, 0.01143353, 0.04936045, -0.13401474, -0.01179208, -0.27894986, 0.27159882, 0.39140061],
          [0.01283231, 0.37223166, -0.03689757, 0.09328462, 0.28145084, 0.35868040, -0.07090648, -0.11975109, 0.40267920, -0.05785847, -0.26291123, -0.12097224, -0.24718119, 0.09647434, 0.06626089, -0.11871915, 0.35694030, -0.33415920, -0.18379112, -0.24402410],
          [0.16077214, 0.07685579, -0.08778138, 0.29459473, 0.17151314, 0.07952079, -0.01301254, -0.08902065, 0.16821963, 0.20618449, -0.16643906, -0.09153876, 0.07837950, -0.14880008, -0.08520313, -0.26096275, 0.33187985, -0.03346793, -0.23011506, 0.41195315],
          [0.13044444, -0.37314996, 0.33660582, -0.09981368, 0.11891298, -0.41119590, 0.17549361, -0.09512299, 0.28788802, 0.06973106, 0.23873334, 0.34987485, 0.16029269, 0.29919875, -0.28874293, -0.36136368, -0.31012788, -0.39199716, -0.10186607, 0.40379226],
          [-0.39628765, -0.16987169, 0.18181579, 0.16748366, 0.25805417, -0.35956633, 0.08706994, 0.16956066, 0.38719749, -0.24193414, -0.32078254, 0.22801678, -0.07023571, 0.38843048, -0.22076909, 0.15426768, 0.06258673, 0.23498397, 0.26795578, -0.38687608],
          [-0.15246563, 0.41396910, 0.06176740, -0.28636345, -0.11736032, 0.00838255, 0.11246745, -0.26303649, 0.25760984, -0.37430689, -0.06218755, -0.15107866, -0.28972086, -0.23552907, -0.32089880, -0.06949091, -0.34293142, -0.22069286, -0.22041185, 0.36190644],
          [0.32373211, -0.33941042, 0.16309668, 0.22579263, -0.18796301, 0.02621013, -0.02451231, 0.40465474, 0.02187058, -0.08834319, -0.03880701, 0.29663798, -0.26708537, 0.11032505, 0.16455325, -0.13615026, -0.29608586, -0.39033216, -0.27304307, 0.17770912],
          [-0.12254731, -0.22089876, -0.36865693, -0.33212405, 0.06944858, -0.36838719, 0.06086273, 0.24248168, -0.41368583, -0.26881117, 0.08815990, 0.27086467, -0.35392067, -0.25556874, -0.09922992, -0.00655641, -0.05913813, -0.24006371, -0.35147852, 0.21379861],
          [0.27960551, -0.01690267, -0.05221377, 0.20677388, -0.19794913, 0.28937960, 0.29709828, 0.01684373, -0.11009803, 0.33834335, 0.12000436, -0.28595161, 0.18013434, 0.06187648, -0.10864779, -0.12991789, 0.11339197, 0.36961085, -0.19709159, -0.20359941],
          [-0.27414170, -0.06947235, -0.03070352, -0.14118126, -0.38800886, -0.14536987, -0.39901760, 0.32033622, -0.27704751, -0.05122904, 0.19539109, -0.22250520, -0.04141569, 0.34052593, 0.36757657, 0.39241353, -0.35249022, -0.22818641, -0.29699835, 0.00724339],
          [0.01202646, 0.07788899, -0.11242510, 0.14706063, -0.16727842, -0.12122189, -0.30283326, -0.34700042, 0.12201449, 0.37492821, -0.26094237, -0.15369242, -0.33110791, -0.24197918, -0.24982911, 0.30908582, 0.26781464, -0.27540866, 0.16634883, 0.23132639],
          [0.07311223, -0.07185908, -0.39666998, 0.02917690, 0.15375561, -0.26312336, -0.37426537, -0.19263519, 0.16790111, -0.17800666, 0.09027926, 0.28299516, -0.18408684, -0.24545628, 0.10428440, -0.33501273, 0.37580454, 0.39091527, 0.13704227, 0.38227445],
          [-0.17595991, -0.28923339, -0.32380918, -0.12765037, 0.13242775, -0.16219020, 0.10431569, 0.19116743, 0.00566938, 0.05646178, -0.02508656, -0.13775443, 0.06943126, 0.16818936, -0.30197892, -0.06538722, -0.10256321, 0.27973172, -0.37990484, 0.25447479],
          [-0.06914442, -0.31605002, 0.27194268, 0.37440664, 0.08246396, -0.23203367, -0.36717841, -0.32518345, -0.03920150, 0.29102138, -0.26479614, -0.33359328, 0.21857333, 0.20520945, 0.00741214, 0.36428976, -0.19546993, -0.27490541, 0.34401041, 0.13734454],
          [-0.33410689, -0.13278145, 0.01411694, -0.39542857, 0.19154023, -0.35346916, -0.11955201, -0.39164513, 0.01795719, 0.38585088, 0.31108794, -0.03399802, -0.03033731, 0.21729927, 0.32197094, -0.12862031, 0.39195579, 0.23530784, -0.08477209, 0.35881805]
        ],
        "biases": [0.00000000, 0.00000000, 0.00000000, 0.00000000, 0.00000000, 0.00000000, 0.00000000, 0.00000000, 0.00000000, 0.00000000, 0.00000000, 0.00000000, 0.00000000, 0.00000000, 0.00000000]
      },
      {
        "layer_id": 2,
        "input_size": 15,
        "output_size": 5,
        "activation_type": 0,
        "weights": [
          [0.02651005, 0.03273752, 0.14635979, 0.01514267, 0.22134463, -0.07532588, 0.12235547, -0.64460224, -0.27874932, -0.28938797, 0.22829425, -0.11089117, 0.27369747, 0.20633669, 0.12984382],
          [-0.23939897, -0.18361893, -0.15334418, 0.00500161, -0.00970315, -0.07650029, 0.14321841, -0.55196220, -0.44575521, -0.09739053, 0.06105816, -0.00902168, 0.51065665, -0.37233099, -0.17100552],
          [0.32814804, 0.38497859, -0.26028839, -0.25445145, -0.08677443, -0.15102312, 0.01819422, -0.05522258, 0.43306842, 0.44441238, 0.54598045, -0.39147431, -0.05505807, 0.09243871, 0.10420069],
          [0.24702887, 0.27710947, 0.04056798, 0.03498821, -0.18105350, -0.02688337, 0.24114999, 0.29112679, -0.29137722, 0.37586388, 0.17310826, -0.30394956, -0.07478138, -0.49351892, -0.06075853],
          [-0.16554539, 0.17569150, -0.16375569, 0.05918235, 0.21167623, 0.16050473, -0.17956060, -0.32082301, -0.14921612, 0.21547846, -0.29164830, 0.15987837, -0.02411356, -0.19990633, 0.29125029]
        ],
        "biases": [0.00000000, 0.00000000, 0.00000000, 0.00000000, 0.00000000]
      }
    ]
  }
}
