{
  "format": "NEURH5",
  "version": 1,
  "timestamp": 1748793970,
  "metadata": {
    "model_name": "model_1",
    "accuracy": 0.978000,
    "loss": 0.225000,
    "validation_accuracy": 1.017000,
    "validation_loss": 0.267000,
    "epoch": 10,
    "optimizer": "adam",
    "strategy": "standard",
    "learning_rate": 0.001100,
    "batch_size": 32,
    "num_layers": 3
  },
  "architecture": {
    "layer_sizes": [20, 15, 5],
    "activation_types": [0, 0, 0]
  },
  "parameters": {
    "layers": [
      {
        "layer_id": 0,
        "input_size": 10,
        "output_size": 20,
        "activation_type": 0,
        "weights": [
          [0.40157181, 0.33396977, -0.78214628, -0.35588557, 0.51911670, 0.51362026, -0.19676705, 0.22459379, 0.23978646, 0.37727115],
          [0.58494848, 0.28708893, -0.29035655, -0.29066640, -0.32674867, -0.08671153, -0.31546438, -0.66097963, 0.44009873, -0.49459556],
          [0.30071568, 0.30831802, -0.26339141, -0.73998106, -0.24969089, 0.31191260, -0.45648512, -0.12789583, 0.16665295, -0.53310359],
          [0.14222550, -0.14825232, -0.10241191, -0.15314172, -0.55512309, 0.26652750, 0.29104006, 0.43768689, 0.36609253, 0.47186241],
          [0.64437193, 0.50718594, -0.27035329, 0.05986391, -0.48442894, -0.32158139, 0.15881933, -0.30404371, 0.71156055, 0.07079349],
          [0.58699948, 0.95804441, -0.45812303, 0.54595280, -0.08345522, -0.07909666, -0.02082038, 0.51108229, 0.59125561, 0.10727144],
          [0.50387251, -0.38790861, -0.49852780, 0.03902755, -0.75777435, 0.35281637, 0.31560528, -1.20688558, -0.61110866, -0.32885537],
          [-0.95850736, -0.47605380, -0.22798920, -1.06096482, -0.09198576, -0.17577054, -0.32017308, -0.60485703, 0.52562392, 0.53924847],
          [0.04808969, 0.78884840, 0.03318014, 0.06684381, -0.02795427, 0.31306896, -0.87599069, -0.19423515, 0.10025813, 0.94353360],
          [-0.67890668, 0.73058593, 0.57906502, -0.53169090, 1.20380521, 0.65825748, -0.59807760, 0.37872526, 0.04087957, 0.37023592],
          [-0.21043396, 0.28580168, 0.83700889, -0.19088551, -0.36594591, 0.22323431, 0.78106731, -0.23812981, 0.22186603, 0.67756808],
          [-0.36943671, 0.42535698, -0.00382790, -0.37318587, 0.36093849, 0.31462371, -0.00769773, -0.05977333, 1.15649593, 0.25204501],
          [-0.33102319, 0.03364317, -0.22762063, -0.58660305, -0.62043238, 0.68903548, 0.43387750, 0.57099825, 0.13925076, -0.79135811],
          [0.51296753, -0.20797558, 0.49767041, -0.50764364, 0.05212446, 0.68607110, 0.47022635, -0.42654622, -0.29013872, -0.01432992],
          [-1.24482024, 0.58083957, -0.07958097, -0.52005839, -0.23265979, 0.36267999, 0.77300835, 0.30731091, 0.54850435, -0.51114476],
          [-1.05580246, -0.08922650, 0.22563694, 0.70783550, 0.87901133, 0.17776440, -0.70280457, 0.53946221, 0.12374260, -0.43014038],
          [0.03098257, 0.26610655, -0.19373037, 0.45780563, -0.69244927, -0.21086276, -0.35134736, 0.35850540, 0.82954961, -0.20498072],
          [-0.54323095, 0.38034809, -0.14029042, -0.10626643, -0.44446936, 0.05404494, 0.88022763, -0.60322684, -0.24281138, 0.10899898],
          [-0.17932704, 0.48352680, -0.01501657, 0.70300049, -0.29220977, 0.56032884, -0.00013375, 0.74626821, 0.51166290, 0.54071993],
          [-0.31427091, -0.32465750, 0.35743272, 0.87141037, 0.61820954, -0.68142372, -0.33193070, -0.32120764, 0.20671494, -0.45132369]
        ],
        "biases": [0.00000000, 0.00000000, 0.00000000, 0.00000000, 0.00000000, 0.00000000, 0.00000000, 0.00000000, 0.00000000, 0.00000000, 0.00000000, 0.00000000, 0.00000000, 0.00000000, 0.00000000, 0.00000000, 0.00000000, 0.00000000, 0.00000000, 0.00000000]
      },
      {
        "layer_id": 1,
        "input_size": 20,
        "output_size": 15,
        "activation_type": 0,
        "weights": [
          [-0.04946274, 0.07094530, -0.05558290, -0.10913855, -0.09745087, 0.08291771, -0.05840209, -0.29083163, 0.14093623, 0.41023070, 0.16401462, -0.08053903, 0.28922990, 0.26459366, 0.24294353, -0.10413139, -0.40608326, -0.01674489, 0.11515091, 0.12130957],
          [0.11998685, 0.24762432, -0.10155220, -0.11785898, -0.09150231, -0.13720705, 0.16030666, -0.29405284, -0.17263341, 0.13817018, 0.29344219, -0.15344392, -0.29467806, 0.08467054, -0.40941188, 0.34847996, -0.09775060, 0.01368936, -0.12880306, -0.19531606],
          [-0.17306861, 0.27628693, -0.31103402, 0.11147547, -0.37371403, -0.03474132, -0.10200557, -0.28496432, 0.21186863, 0.13743886, -0.40449110, 0.24418446, 0.05044191, -0.17501073, -0.06992278, -0.14854793, 0.01208194, 0.18147780, 0.28323925, -0.22201176],
          [-0.02897693, -0.10486845, -0.37259975, -0.35288545, -0.24639535, 0.05480441, 0.27452788, -0.06413265, 0.28117296, -0.17137632, -0.26399496, -0.11797995, 0.35947737, 0.07404617, -0.10844480, -0.03059029, 0.10585357, 0.36804128, -0.07801636, -0.37223658],
          [-0.04566844, 0.07943525, 0.20562108, 0.30156270, -0.30554196, -0.32743940, 0.13688813, 0.27606308, 0.06731047, 0.13132793, 0.39916077, -0.39837539, 0.34901273, -0.25282991, 0.38731155, 0.01910583, -0.18317455, 0.18200734, 0.07490682, 0.27913031],
          [0.27715087, 0.13239947, 0.19082923, 0.11843737, -0.12460178, 0.02888021, 0.13592684, -0.14621478, 0.30571666, -0.04772190, 0.34610984, -0.18493684, 0.37408724, -0.31695721, -0.06955248, 0.27854535, 0.38301575, -0.13834852, 0.02168051, 0.02977466],
          [0.26341787, 0.35598284, 0.13488826, -0.21262701, 0.36553791, 0.08009437, -0.30967361, -0.20952569, 0.32023919, -0.25158855, -0.27909726, 0.27823198, 0.08479951, 0.10205458, 0.28045252, 0.14213821, -0.08980069, 0.30745223, 0.13857719, -0.31830797],
          [-0.41400602, 0.14579590, 0.10661777, -0.03763852, 0.06156429, -0.38731778, -0.12305865, 0.29403621, -0.10695693, 0.13367294, 0.06329012, -0.36438790, 0.20243901, -0.18259697, -0.04751209, -0.26794967, -0.33802101, 0.32894990, 0.40776208, 0.07797121],
          [-0.38670978, 0.15810636, -0.01058962, 0.05741887, 0.32769066, -0.05423683, 0.15617086, -0.24580827, -0.01513706, -0.18843523, 0.37025046, -0.21173957, 0.37533674, -0.01908582, -0.30880082, 0.38210544, 0.29575309, -0.23400688, -0.40823621, 0.23391117],
          [-0.37230974, 0.38096160, 0.11706884, 0.06078114, -0.30051520, -0.30718166, 0.26881650, 0.00153506, 0.12908730, 0.00418925, 0.02190627, -0.31599706, 0.33376241, 0.13986620, -0.18417636, -0.09381517, -0.08985192, 0.27417418, -0.21281511, -0.31181777],
          [0.18905577, 0.12261798, -0.24741608, 0.28874719, -0.39536086, -0.32662532, -0.25837806, -0.11512991, 0.23157918, 0.18151842, 0.13776255, 0.06704898, -0.12324083, -0.28390321, -0.17216523, -0.27400336, -0.22880082, 0.14189252, -0.07886202, 0.32006100],
          [0.06571820, -0.13096242, -0.05196987, 0.16531686, 0.27681252, 0.24178447, 0.28905562, -0.18033932, -0.19487858, -0.27329829, 0.02776715, -0.35343748, 0.41299239, 0.20716117, -0.31283092, -0.27773792, -0.06201730, 0.22623309, -0.23718840, -0.05471256],
          [-0.38664877, 0.35551196, -0.32622731, -0.19353293, -0.01486507, 0.24244507, -0.20078880, -0.23690026, -0.18013653, -0.09884974, -0.24169685, 0.35485461, 0.21866544, 0.09652340, 0.06281200, -0.11896663, 0.33773008, -0.25016212, -0.31955004, 0.24108724],
          [0.16409419, -0.39892590, 0.20533782, -0.31920001, 0.32706100, 0.12804477, -0.12761475, -0.09737129, -0.23596172, -0.13970384, -0.39931187, 0.34312943, 0.23639157, -0.08823100, 0.19044439, 0.27455032, 0.31284541, -0.30671266, -0.12965651, 0.36606836],
          [-0.11411631, -0.12250555, -0.34725049, 0.05953161, 0.22887549, 0.28502589, -0.00555186, 0.26276326, 0.11819522, -0.05351436, -0.12229524, -0.12490989, -0.18089831, 0.34706315, 0.10446416, 0.20253156, -0.28358376, 0.22889559, -0.20540056, 0.09279263]
        ],
        "biases": [0.00000000, 0.00000000, 0.00000000, 0.00000000, 0.00000000, 0.00000000, 0.00000000, 0.00000000, 0.00000000, 0.00000000, 0.00000000, 0.00000000, 0.00000000, 0.00000000, 0.00000000]
      },
      {
        "layer_id": 2,
        "input_size": 15,
        "output_size": 5,
        "activation_type": 0,
        "weights": [
          [-0.41056192, -0.16854958, -0.15609479, -0.24469244, 0.21360916, -0.15354960, 0.41241455, -0.17305107, 0.23192245, 0.18084738, 0.28130159, 0.48528731, 0.31637290, -0.38017967, -0.83874506],
          [-0.23223922, 0.08321447, -0.50977319, -0.37555197, -0.42108947, -0.06517039, 0.40130836, 0.32930785, -0.20473666, 0.14867109, -0.15088412, 0.58572775, 0.24900629, -0.16618724, -0.19970207],
          [0.69523168, 0.12649025, 0.37130895, 0.16192409, 0.04581312, -0.29550573, -0.25199184, 0.01525105, -0.39761111, 0.11225749, -0.29761523, 0.32110825, 0.20743506, -0.09257920, -0.16458479],
          [0.11328541, 0.43685275, -0.26233214, 0.54617178, 0.35619971, -0.03215895, 0.62584859, 0.17858385, 0.04789063, 0.30382851, -0.39392573, 0.48770365, -0.33543947, 0.12587032, 0.42370129],
          [-0.35302505, -0.37635672, -0.05682827, -0.18987957, 0.44393942, -0.43709746, -0.18767914, -0.08426298, 0.47244608, 0.16325344, 0.27822021, 0.02383667, -0.01619183, -0.25603208, 0.05322509]
        ],
        "biases": [0.00000000, 0.00000000, 0.00000000, 0.00000000, 0.00000000]
      }
    ]
  }
}
