{
  "format": "NEURH5",
  "version": 1,
  "timestamp": 1748793970,
  "metadata": {
    "model_name": "model_6",
    "accuracy": 0.992000,
    "loss": 0.106000,
    "validation_accuracy": 1.036000,
    "validation_loss": 0.130000,
    "epoch": 60,
    "optimizer": "adam",
    "strategy": "standard",
    "learning_rate": 0.001600,
    "batch_size": 32,
    "num_layers": 3
  },
  "architecture": {
    "layer_sizes": [20, 15, 5],
    "activation_types": [0, 0, 0]
  },
  "parameters": {
    "layers": [
      {
        "layer_id": 0,
        "input_size": 10,
        "output_size": 20,
        "activation_type": 0,
        "weights": [
          [-0.64644307, 0.34806085, 0.24741307, 0.56424695, -0.02805441, -0.03849211, -0.56434637, -0.31393847, 0.44614357, -0.35790899],
          [-0.12713361, 0.38422966, 0.30811173, 0.12390912, -0.31596753, -0.58634561, 0.14937639, -0.68642843, 0.20973682, -0.55601650],
          [0.19687828, -0.02965776, 0.75083834, -0.08319604, 0.10656194, 0.72180831, 0.27709889, 0.11575962, 0.18519464, 0.18922447],
          [0.04358048, 0.56056613, -0.42523566, 0.17234774, 0.00595349, 0.73201466, 0.67638659, -0.46675184, -0.30552843, -0.14385985],
          [-0.26129633, 0.29267466, 0.28455409, -0.05733266, -0.02420996, -0.56198370, -0.30729017, -0.53217179, -0.51518941, -0.35097590],
          [0.63101983, 0.47863120, -0.21899687, 0.11896733, -0.95910555, 0.50122207, -0.23791707, 0.16378318, 0.41025382, 0.29384622],
          [0.31316563, 0.37920943, 0.25971711, 0.01110191, -0.01490071, 0.92212802, -0.20441847, -0.35788652, -0.26354009, 0.75313574],
          [-0.05401681, 0.24437924, 0.84936827, -0.48591533, -0.45894134, -0.91222048, 0.12297637, 0.49713874, 0.18937950, 0.65201145],
          [0.51964694, -0.37320051, 0.12497365, 0.05683416, 0.04177250, -0.00852724, 0.10339105, 0.85347164, -0.40232778, 0.13432807],
          [-0.73971498, -0.76035821, -0.96178669, 1.24554372, -0.42805231, -0.45273790, 0.00212406, -0.40013811, -0.16535528, -0.09213496],
          [0.63302928, 0.14407891, 0.60235089, -0.07426522, -0.33594599, 0.85509425, -0.17396931, 0.47076908, 0.39488173, -0.12821481],
          [0.25052869, 0.34099373, -0.41521958, 0.06677078, 0.92543387, 0.59218913, -0.05466281, 0.40008381, -0.17602788, -0.04639524],
          [0.05695689, -0.23329590, -0.20998521, 0.47902220, -0.17556746, 0.16605940, -0.20109911, 0.17797987, -0.40397212, 0.56424022],
          [-0.11302099, -0.21960014, -0.79827213, 0.29211906, 0.06816049, -0.46391752, -0.45997781, -0.17308387, 0.00335925, 0.05882026],
          [-0.35260904, -0.16435640, 0.28797391, 0.09650112, 0.15710244, -0.06776635, -0.56371975, -0.47806689, 0.45873180, 0.31323269],
          [0.59697402, 0.08829756, -0.17613782, 0.31477356, 0.70147365, -0.13001575, 0.51835680, -0.30559647, -0.59280664, 0.26055676],
          [-0.50662047, 0.36795077, -0.78239816, -0.51222885, -0.55114579, -0.24205686, -0.16652127, 0.62982464, -0.25304562, -0.29665276],
          [-0.23973656, 0.17246813, -0.26446214, -0.33203387, 0.25194243, 0.44532341, -0.59388393, -0.30523413, 0.11380378, 0.22530814],
          [-0.81716973, 0.10840177, 0.18739486, 0.18275750, 0.31249446, -0.04453123, 0.26552275, -0.03979392, -0.11673173, -0.46892443],
          [-0.42837498, -0.04274991, 0.11557341, 0.16673781, -0.10402233, -0.24561530, -0.10642424, 0.34893635, 0.49726787, -0.24482085]
        ],
        "biases": [0.00000000, 0.00000000, 0.00000000, 0.00000000, 0.00000000, 0.00000000, 0.00000000, 0.00000000, 0.00000000, 0.00000000, 0.00000000, 0.00000000, 0.00000000, 0.00000000, 0.00000000, 0.00000000, 0.00000000, 0.00000000, 0.00000000, 0.00000000]
      },
      {
        "layer_id": 1,
        "input_size": 20,
        "output_size": 15,
        "activation_type": 0,
        "weights": [
          [-0.19404306, -0.30773669, 0.04886850, -0.12133376, 0.30149627, 0.23452242, -0.03649170, 0.29011872, 0.29774293, 0.08633664, 0.26604453, -0.21488999, -0.40529048, 0.05816269, 0.40766090, 0.03391007, 0.20865360, -0.07230756, 0.34642869, 0.20572868],
          [-0.37430248, 0.01214131, 0.35147586, -0.25871736, -0.02158416, -0.06630941, 0.13165601, 0.11640661, -0.30396631, -0.34422740, 0.35596377, -0.18526572, -0.18508036, -0.38214794, -0.18200661, -0.06251544, 0.13511685, 0.31689289, -0.18286903, 0.34821510],
          [-0.40829450, 0.08262334, -0.03770866, -0.28934669, 0.25619775, -0.09375159, 0.15048929, 0.32110777, 0.26929763, -0.19303098, 0.14038569, 0.26632252, 0.31678694, -0.30788893, -0.02531451, 0.17141348, 0.06083869, -0.16128173, -0.36047274, -0.24163201],
          [-0.21149606, 0.32745719, 0.16257897, -0.19481654, -0.05842685, 0.12148109, -0.30930901, 0.12186489, 0.34460753, 0.23696151, 0.38141119, 0.22048686, 0.07055306, -0.02324768, 0.12939109, 0.14160259, 0.01700928, 0.18768078, 0.19898005, -0.35213074],
          [0.01727457, -0.32192793, 0.02298783, -0.35602093, 0.05260381, -0.27560276, 0.21671592, -0.37405378, 0.05127368, -0.27312347, -0.34591004, 0.23071317, -0.29612106, -0.15394855, 0.33268026, 0.16917074, -0.36964139, -0.31696293, -0.16557273, 0.39127243],
          [0.34289232, 0.39132825, -0.37529171, -0.05245737, 0.25262487, 0.30659199, -0.24234205, 0.27598390, 0.39304662, 0.35090214, 0.03599295, -0.39202559, 0.24771203, -0.28310892, -0.07147680, 0.23158887, 0.34458306, -0.17501314, -0.11056419, -0.04377068],
          [-0.31995735, 0.02002126, 0.29703024, -0.29907066, -0.04287894, -0.23789056, -0.26309547, 0.09498055, -0.19797587, -0.16055337, 0.28803763, 0.10007111, 0.06760040, 0.03571591, -0.07998559, -0.34597132, 0.02862193, -0.06479903, -0.15361303, 0.17503889],
          [-0.28543624, -0.26730907, -0.33684921, 0.14915136, 0.19295906, 0.30648404, -0.40050501, 0.16392130, 0.00753144, -0.11537413, 0.26712567, -0.26215947, 0.09256830, -0.16415706, 0.17023079, 0.05693754, -0.30967811, -0.28496280, 0.23755223, 0.37282389],
          [-0.02035213, -0.06181313, 0.34570321, -0.39424008, 0.29262173, 0.13372171, 0.05485742, 0.33711237, 0.13313599, 0.14820774, 0.06680417, -0.09718884, 0.34655321, -0.18572438, 0.38709235, -0.35268319, -0.15919989, -0.15042897, -0.13541955, 0.39193174],
          [-0.16923325, 0.14686330, -0.17100054, 0.25518474, 0.26987293, 0.36758935, -0.22086386, 0.21760075, -0.40804607, 0.11701820, 0.03814463, 0.16378985, 0.28222549, 0.12951952, -0.18410872, 0.21474992, -0.29275316, 0.14121218, 0.07981747, 0.00445327],
          [0.31897646, 0.05638395, 0.32260671, -0.20798604, -0.30132872, 0.09723548, -0.39052686, -0.23335643, -0.24075289, -0.34111330, -0.30243737, -0.31823421, -0.00201953, 0.00916013, -0.06797041, 0.36993569, 0.29467520, -0.13260940, -0.40626127, 0.30357546],
          [0.39997792, 0.08629691, -0.40207925, 0.20440330, -0.29256886, -0.07383324, 0.37450519, 0.08323301, 0.27193967, 0.32401803, 0.32566833, -0.09240308, -0.37113306, 0.28323007, -0.37678742, -0.34816515, -0.40819752, 0.05597191, 0.02209846, -0.39817214],
          [-0.37540269, -0.26137835, -0.02832998, 0.00315309, -0.00295720, -0.01706004, -0.21270873, -0.17972077, 0.26386818, -0.35688269, -0.35320190, 0.23165274, -0.23858541, -0.34823203, 0.12457585, 0.36347151, 0.12896702, -0.36108869, 0.17099197, -0.39916974],
          [0.24764377, 0.22577605, 0.36165306, 0.20495659, -0.10225132, -0.27455059, -0.31755051, -0.10437393, -0.34190440, -0.34950328, 0.28882900, 0.15201057, 0.21940230, 0.05989019, -0.36897865, 0.05693546, -0.34431821, -0.34249574, -0.35075390, -0.02875711],
          [0.27702421, -0.34075218, -0.02980867, -0.00662610, -0.40237579, 0.18876506, 0.20506744, 0.10482911, -0.28899780, 0.32381773, 0.27180389, -0.30216596, 0.10354700, -0.30729073, 0.09175538, 0.25035718, 0.28586465, 0.01506455, -0.20179507, 0.24034007]
        ],
        "biases": [0.00000000, 0.00000000, 0.00000000, 0.00000000, 0.00000000, 0.00000000, 0.00000000, 0.00000000, 0.00000000, 0.00000000, 0.00000000, 0.00000000, 0.00000000, 0.00000000, 0.00000000]
      },
      {
        "layer_id": 2,
        "input_size": 15,
        "output_size": 5,
        "activation_type": 0,
        "weights": [
          [-0.45275927, 0.19129437, -0.02892249, 0.39705512, -0.14384302, -0.08839070, -0.30165797, -0.27638167, -0.01539819, 0.32582015, -0.14654343, 0.05695345, -0.20920891, 0.20192197, 0.33033493],
          [0.10338736, 0.72847509, 0.11281145, 0.18811989, 0.05936511, 0.16070758, 0.34860954, -0.14959040, 0.19357383, -0.24561331, -0.19617587, 0.29272419, 0.09463947, -0.39928415, 0.10509576],
          [0.12033224, -0.17543775, 0.08623277, 0.28143466, 0.56878853, -0.02751976, -0.00497789, -0.22613981, -0.03028530, 0.26649806, 0.08845700, -0.29640207, -0.10270286, -0.04654749, 0.05536770],
          [0.17564683, 0.33334988, -0.09581839, -0.02081860, -0.14346811, -0.59104604, 0.36690018, 0.16786589, -0.09363127, -0.16040152, 0.10100597, 0.28263104, -0.15756044, 0.27908406, -0.14893840],
          [0.03052052, -0.03382617, 0.19344667, 0.31146723, 0.24020845, -0.11982098, -0.36382684, -0.04021521, -0.30808592, 0.09357174, -0.52221251, 0.16137238, -0.22301853, -0.05365023, 0.25706550]
        ],
        "biases": [0.00000000, 0.00000000, 0.00000000, 0.00000000, 0.00000000]
      }
    ]
  }
}
