{
  "format": "NEURH5",
  "version": 1,
  "timestamp": 1748793970,
  "metadata": {
    "model_name": "model_3",
    "accuracy": 0.864000,
    "loss": 0.208000,
    "validation_accuracy": 0.905000,
    "validation_loss": 0.244000,
    "epoch": 30,
    "optimizer": "adam",
    "strategy": "standard",
    "learning_rate": 0.001300,
    "batch_size": 32,
    "num_layers": 3
  },
  "architecture": {
    "layer_sizes": [20, 15, 5],
    "activation_types": [0, 0, 0]
  },
  "parameters": {
    "layers": [
      {
        "layer_id": 0,
        "input_size": 10,
        "output_size": 20,
        "activation_type": 0,
        "weights": [
          [-0.80505747, 0.16892929, -0.48379710, 0.28377706, 0.61899692, -0.03729279, 0.15603897, 0.39845741, 0.00985957, -0.38365999],
          [-0.08967906, 0.52085656, -0.37519041, 0.54752314, -0.18130967, 0.24267524, -0.40366879, 0.44109306, 0.26296932, 0.43456909],
          [-0.59107804, 0.10708515, 0.18208966, -0.32123449, -0.73220474, 0.80471396, 0.36451808, 0.42644969, 0.16845626, -0.29811177],
          [0.26986790, 0.63359427, -0.50647020, 0.58115196, 0.31251490, -0.52772313, -0.56383067, -0.08630208, 0.16897099, 0.11187517],
          [0.19438398, -0.60996139, 0.05532175, 0.83275980, 0.04036076, -0.13297208, 0.32076514, 0.22354575, 0.18008704, -0.58912194],
          [1.01973009, 0.16138457, -0.40012994, 0.05964525, -0.14308102, -0.22555494, 0.12605976, 0.15978348, -0.18290803, -0.08073465],
          [-0.00980846, -0.65198892, -0.16172799, 0.05494820, -0.10691366, -0.05401650, -0.24290086, 0.43810776, -0.29793370, 0.25782022],
          [0.56360638, -0.88826513, -0.60507590, 0.49307600, -0.14734575, -0.29344994, -0.82270485, -1.32244062, -0.04133613, 0.58967924],
          [0.05282653, -0.00348307, 0.03802314, -0.30051327, -0.62983662, 0.15163514, 0.10461946, 0.84942019, -0.84174067, -0.33778676],
          [-0.58665049, -0.34878954, -0.05073427, 0.31500617, -0.12594466, 0.52454484, -0.14886610, -0.46041083, -0.34696627, 0.78500515],
          [-0.40847161, 0.33461538, 0.49000847, -0.35753447, -0.01727440, 0.05800637, 0.08452902, -0.23617598, 0.08958048, 0.03240677],
          [-0.27193147, -0.48967826, 0.05721921, 0.50395119, -0.92976695, -0.17418419, -0.62081617, -0.15925488, 0.55869174, 0.02442161],
          [0.30940545, 0.36629146, 0.35510194, -0.34300438, 0.13280126, -0.51472402, -0.04852558, -0.03235329, 0.33931327, -0.84555227],
          [-0.92910355, 0.11537248, 0.85198122, 0.06376647, -0.30956563, 0.55855888, -0.23086040, -0.27258897, -0.59760976, 0.26515123],
          [0.13832940, 0.06816435, -0.37154183, 0.27476299, 1.05590487, 0.23688082, 0.10001969, -0.20823918, -0.88102531, -0.03598161],
          [0.15342002, 0.23344420, 0.00483068, 0.83692116, 1.36128497, 0.65007448, -0.35271627, -0.12270875, 0.23153262, 0.44458705],
          [0.46480340, 0.10837997, 0.17351766, 0.07604043, 0.19648725, 1.25334549, 0.40347108, 0.23534787, 0.21510361, -0.01087087],
          [-0.00171956, -0.60077894, -0.00882485, -0.55348063, 0.67556065, -0.24228691, -0.33594280, -0.58624768, 0.33856499, -0.00417811],
          [0.07206462, 0.21670242, -0.84032792, 0.48496857, 0.01782144, 0.60340530, 0.09755028, 0.00836539, 0.35723379, -0.55325425],
          [0.22223723, 0.49873561, -0.03316255, 0.26861894, 0.42940867, -0.00992471, -0.38924453, 0.50584584, 0.55771083, 0.10358773]
        ],
        "biases": [0.00000000, 0.00000000, 0.00000000, 0.00000000, 0.00000000, 0.00000000, 0.00000000, 0.00000000, 0.00000000, 0.00000000, 0.00000000, 0.00000000, 0.00000000, 0.00000000, 0.00000000, 0.00000000, 0.00000000, 0.00000000, 0.00000000, 0.00000000]
      },
      {
        "layer_id": 1,
        "input_size": 20,
        "output_size": 15,
        "activation_type": 0,
        "weights": [
          [0.19283536, -0.11575411, -0.32231942, 0.06818109, -0.14152902, 0.39182109, -0.37309268, -0.35683435, -0.36864686, -0.16312942, 0.05236004, -0.23226632, -0.13718055, -0.22249877, 0.06638675, 0.34016821, 0.15138955, -0.28139871, -0.31089821, -0.08981004],
          [0.15028514, 0.20242184, 0.35685062, -0.18574555, 0.03129373, 0.12381890, 0.06256911, -0.06119737, -0.07027786, -0.31966063, 0.03825825, -0.41039726, 0.34846947, -0.27477500, 0.05121529, 0.40168422, -0.21879497, 0.21025737, 0.38379264, -0.33065280],
          [-0.04564522, -0.35824999, -0.14773485, -0.39949006, -0.16754527, 0.36222363, -0.14178847, 0.17138693, -0.38580200, -0.31840590, -0.40352431, -0.06868098, 0.02061380, 0.31897426, 0.01864592, 0.36853167, -0.11672445, -0.06923334, -0.15418862, -0.38998199],
          [-0.18433435, -0.26497114, 0.03734253, -0.06787009, 0.40004352, 0.36106437, 0.24830067, -0.32748994, 0.11563205, -0.07317872, -0.21778846, -0.26262134, -0.21756290, 0.21585542, 0.06904859, 0.36181998, -0.30154562, -0.23601839, -0.26412857, 0.12088801],
          [-0.34037802, -0.36577818, 0.02238627, 0.29848135, 0.07470657, 0.22575839, 0.06479769, 0.13176607, 0.31031144, 0.16491678, 0.17655602, 0.37133268, -0.24141349, 0.14870517, 0.14650768, -0.35154286, -0.03950430, 0.17008878, 0.15463313, 0.40843609],
          [-0.18714328, -0.27405977, -0.34871492, 0.28970590, -0.01601863, -0.09952421, 0.01568596, 0.30465722, 0.36349261, -0.34422034, -0.35340518, 0.12747094, 0.16493747, -0.30392230, 0.39556804, -0.33129653, -0.09986275, 0.12231004, 0.37381989, 0.15757068],
          [0.09480750, 0.20657609, -0.20974638, -0.07624186, -0.35925591, 0.33555862, -0.31052849, 0.32746479, 0.28956473, 0.09618758, 0.21540479, -0.05184828, -0.27515087, 0.35894126, 0.17254120, -0.03194686, -0.33589050, -0.29904717, 0.35185665, 0.34474578],
          [0.07555912, -0.35033104, -0.37444252, 0.14262350, -0.21420504, 0.34201506, -0.27564925, 0.26335970, 0.20531714, 0.16113570, 0.39074159, -0.29822779, 0.04617527, 0.15796031, 0.01820807, -0.36574632, -0.27022517, 0.33712754, 0.38816389, 0.26703805],
          [-0.07808170, 0.18546863, 0.28325438, 0.03201164, -0.23173691, -0.34815070, -0.16510734, -0.06749840, 0.02212349, 0.02232482, 0.09354498, -0.31096369, -0.36245179, -0.38052472, -0.22746049, 0.31072155, -0.39536253, -0.35469392, -0.00180650, 0.27684081],
          [-0.11101467, -0.16205578, -0.12079342, 0.27387580, -0.25829116, -0.31100929, -0.30046138, -0.23052724, 0.10880069, 0.21566273, 0.14321984, -0.12904036, -0.04320504, 0.07772798, -0.33421591, -0.30932412, -0.13203536, 0.13268061, -0.05262395, -0.06261983],
          [0.03660365, -0.06528727, -0.07867051, 0.22626573, 0.31111741, -0.36687499, -0.19397226, 0.05389362, -0.12802336, -0.34010276, 0.11987180, -0.03040195, -0.04087076, 0.39059144, -0.33766693, -0.34500241, -0.24820349, 0.30420855, 0.27511659, -0.10622592],
          [-0.00137199, 0.12725940, -0.07820024, -0.15024365, -0.33331019, 0.00802990, -0.01817233, 0.13866273, 0.29113060, -0.08543432, -0.00614324, 0.26044327, 0.04593978, 0.34072572, 0.41287333, -0.13726138, 0.07524013, 0.08453515, -0.20102984, -0.14746553],
          [-0.01376184, -0.26142076, 0.08675154, -0.21322416, 0.26606354, 0.10473903, -0.14678632, -0.19118394, -0.28307566, -0.34089330, 0.08287714, 0.08786529, 0.28761128, 0.38744187, -0.27581501, -0.03840484, -0.39706254, 0.05587379, 0.02968972, -0.33594942],
          [0.36669382, -0.36679941, 0.24823444, 0.21595094, 0.01836616, -0.19290535, -0.23194888, 0.22984286, -0.01847475, 0.02432769, -0.19579850, -0.00071891, 0.33824223, 0.07683762, -0.39262110, 0.17622845, -0.16596211, -0.35626000, 0.17533715, -0.24076386],
          [0.30268890, 0.40518233, -0.22029842, -0.21554053, 0.25457901, 0.02684126, -0.18207598, -0.40038046, -0.22701329, 0.37395182, -0.10886681, 0.32948908, 0.36067963, 0.40663007, 0.09830086, 0.12536468, 0.37201524, -0.36267254, 0.04960175, -0.21843329]
        ],
        "biases": [0.00000000, 0.00000000, 0.00000000, 0.00000000, 0.00000000, 0.00000000, 0.00000000, 0.00000000, 0.00000000, 0.00000000, 0.00000000, 0.00000000, 0.00000000, 0.00000000, 0.00000000]
      },
      {
        "layer_id": 2,
        "input_size": 15,
        "output_size": 5,
        "activation_type": 0,
        "weights": [
          [-0.18993807, 0.13601820, 0.22551060, 0.29802841, -0.01186127, -0.39781651, -0.27885407, 0.32709688, -0.20143281, 0.00453519, 0.05610154, -0.13921489, 0.03746112, 0.40896094, 0.16270854],
          [0.41749796, -0.24144399, 0.27008328, -0.22026291, -0.39850959, -0.00858072, 0.11984276, 0.06248148, -0.47601214, 0.09963766, -0.00279209, 0.45463815, -0.10675123, 0.17648563, 0.34219617],
          [-0.02102795, -0.18642624, -0.02631264, 0.48052225, -0.39416656, -0.12550576, -0.02543266, 0.10308809, 0.56631505, 0.17783561, -0.23439348, 0.17211506, 0.35240099, 0.34822348, -0.05963435],
          [-0.25648183, -0.11633202, 0.48369250, 0.27897403, 0.49661180, 0.30901575, -0.24782281, -0.35667294, 0.57047379, 0.15011626, 0.74216539, 0.23143788, -0.02512494, -0.35014236, -0.32056999],
          [-0.11286655, 0.12253129, 0.00594474, 0.29615998, 0.05082833, 0.56067914, -0.48948541, -0.02325382, -0.04328872, -0.31966779, 0.06252865, -0.22014731, -0.29545054, 0.20623538, 0.16631831]
        ],
        "biases": [0.00000000, 0.00000000, 0.00000000, 0.00000000, 0.00000000]
      }
    ]
  }
}
