{
  "format": "NEURH5",
  "version": 1,
  "timestamp": 1748793970,
  "metadata": {
    "model_name": "model_10",
    "accuracy": 0.978000,
    "loss": 0.267000,
    "validation_accuracy": 0.943000,
    "validation_loss": 0.293000,
    "epoch": 100,
    "optimizer": "adam",
    "strategy": "standard",
    "learning_rate": 0.002000,
    "batch_size": 32,
    "num_layers": 3
  },
  "architecture": {
    "layer_sizes": [20, 15, 5],
    "activation_types": [0, 0, 0]
  },
  "parameters": {
    "layers": [
      {
        "layer_id": 0,
        "input_size": 10,
        "output_size": 20,
        "activation_type": 0,
        "weights": [
          [0.26632214, 0.12280465, 0.11825235, -0.42579186, -0.95232326, -0.05300055, -0.11801653, -0.02428998, -0.05101086, -0.12097295],
          [-0.86186302, 0.37778017, -0.34633091, -0.37814793, -0.06227464, -0.72270495, -0.12368703, 0.28183803, 0.88795316, -0.09481119],
          [0.28199556, 0.16012186, -0.61483216, 0.09838045, -0.62441432, 0.10234991, -0.05430563, -0.44348627, 0.54765296, 0.56431788],
          [-0.06112354, 0.25370464, 0.76561147, -0.32585639, -0.18676755, -0.50886226, 0.32373518, -0.18332580, 0.28489503, 0.55825722],
          [-0.01146814, 0.35080105, -0.67428815, 0.36840117, -0.70144904, -0.16223247, 0.10070145, 0.21003558, 0.10550836, 0.20318542],
          [0.01053369, 0.41312480, 0.62649614, 0.05467607, -0.67559922, 0.17778753, 0.23628801, -0.34014535, -0.33516246, -0.46461841],
          [0.22324808, -0.20400858, 0.81635636, 0.11076312, -0.51843637, 0.28348145, -0.08855526, -0.96361655, 0.32743099, -0.58878815],
          [-0.28261057, 0.42817107, -0.01296559, -0.71542996, -0.29608649, 1.11434317, 0.12273026, 0.48067263, 0.47890314, -0.13207318],
          [-0.39442226, 0.31732884, -0.68415052, -0.25108558, 0.70457470, -0.18365201, 0.17634776, 0.12695944, -0.10864995, -0.53230017],
          [0.08970816, 0.33235240, 0.42560354, 0.08723935, 0.19742349, -0.55115891, 0.04287215, -0.26436049, 0.36979395, 0.36862037],
          [0.64957178, 0.19699982, -0.26162624, 0.65369487, 0.59197474, -0.56431502, 0.06319303, -0.11007658, 0.76970887, 0.71651322],
          [0.44198006, 0.03722002, -0.11362915, 0.49202377, 0.25141513, -0.53074813, -0.19296080, -0.41701931, 0.29708979, 0.22084694],
          [-0.01466799, 0.53368068, -0.53999609, 0.17368905, 0.38288310, -0.49671167, 0.25409803, -0.63239384, -0.36374280, -0.05437897],
          [0.18043943, 0.25825426, 0.08961137, 0.24198446, -0.54813564, 0.19749494, -0.86736971, -0.62094629, -0.56735289, -0.01755542],
          [0.94649529, -0.36691794, 0.61971378, 0.05235744, -0.10142178, 0.14047568, -0.08503260, -0.37055185, 0.00209232, -0.01037054],
          [-0.14774776, -0.08263113, -0.27534115, 0.66931981, -0.77123010, 0.30352536, -0.22292119, -0.59028500, -0.18397214, -0.03640721],
          [-0.30269375, 0.08715000, 0.09532182, 0.10848456, 0.46640447, 0.78044254, 0.06828700, 0.22901055, 0.60307854, -0.73996747],
          [0.18622914, 0.83701438, 0.03719679, 0.09144095, -0.27903250, 0.66436321, 0.18899131, -0.00114860, 0.02665193, 0.59116787],
          [0.34217426, 0.47682390, 0.53574419, 0.66539311, -0.58708990, 0.59291172, -0.33245933, 0.18670624, 0.25324437, -0.48602635],
          [-0.23451693, 0.28432143, -0.18921582, -0.84621596, -0.54743117, -0.46664044, 0.39721331, 0.16141252, 0.09939950, -0.23670742]
        ],
        "biases": [0.00000000, 0.00000000, 0.00000000, 0.00000000, 0.00000000, 0.00000000, 0.00000000, 0.00000000, 0.00000000, 0.00000000, 0.00000000, 0.00000000, 0.00000000, 0.00000000, 0.00000000, 0.00000000, 0.00000000, 0.00000000, 0.00000000, 0.00000000]
      },
      {
        "layer_id": 1,
        "input_size": 20,
        "output_size": 15,
        "activation_type": 0,
        "weights": [
          [0.34519741, 0.21344881, 0.19727397, -0.04359104, 0.21488446, 0.31188199, 0.06262044, -0.02633796, 0.35996437, -0.02166747, 0.18927157, -0.39118925, 0.22722045, -0.20460512, 0.21250884, 0.13258348, -0.02959530, 0.26708174, -0.17203568, 0.24715197],
          [0.24058928, 0.07535636, 0.38235390, 0.33152840, -0.14362176, -0.00152704, 0.00528661, 0.24796019, -0.25314695, 0.02768932, -0.00592564, -0.22286507, -0.29356495, -0.25311705, -0.29795504, -0.33834660, -0.17466387, -0.03675498, 0.00594539, -0.27321264],
          [-0.18853338, 0.37686962, 0.07351109, 0.00714670, 0.04316269, 0.03807943, -0.10389408, 0.27013066, -0.26883662, -0.34008166, -0.35347760, -0.26157334, 0.00658674, -0.25947449, -0.32546127, 0.26037583, -0.25891179, 0.02289183, -0.31383491, 0.23797269],
          [-0.01279002, 0.33852312, -0.17076330, 0.10188124, -0.14898470, 0.12402901, 0.28120914, -0.39112356, -0.32525471, -0.40849218, 0.07236852, -0.14994340, -0.25502807, -0.12172400, 0.36712360, 0.23259264, -0.17459486, 0.29519951, 0.39915928, 0.40501776],
          [0.32629433, -0.33619446, 0.38867584, -0.23793587, -0.19604349, 0.02223523, 0.24407785, -0.08523247, 0.07407233, 0.33162433, -0.18757059, -0.00329297, 0.13610305, 0.33082432, -0.38413671, 0.34400454, 0.03875133, -0.40397272, -0.15246202, -0.35392839],
          [-0.38547733, 0.16992605, -0.09655482, 0.23740149, 0.32363102, -0.38202628, 0.20607097, 0.40940717, 0.40007222, 0.01477852, -0.04094031, 0.04949894, -0.29057592, 0.29879129, 0.31621534, 0.02208371, 0.18150207, -0.13681810, 0.07283884, 0.30215085],
          [-0.35742778, -0.40594399, -0.16039622, -0.38307172, 0.02569301, 0.39304140, 0.26324216, -0.11316260, 0.17306523, -0.33333784, 0.37136039, 0.22501324, -0.03793326, 0.07615274, -0.31014347, 0.17420337, -0.25004521, -0.01013052, 0.32038897, -0.21833859],
          [-0.40015888, 0.18499583, -0.21020712, -0.36715734, 0.02865796, -0.28749508, -0.09040724, 0.04979326, -0.31237108, -0.00198115, -0.17408697, -0.27760294, -0.27733383, 0.10490117, 0.09477112, -0.40533277, 0.17540887, 0.13631682, -0.21695553, -0.34099990],
          [-0.05254449, -0.38350183, 0.24912365, 0.25514036, 0.35299093, 0.36289290, 0.34175292, 0.28768569, -0.01752921, 0.18280901, 0.29936650, 0.04663775, -0.34981227, 0.06409914, -0.01584588, 0.31980291, -0.13095066, 0.14538495, -0.17525156, 0.02281716],
          [0.08761056, 0.14655456, -0.39138174, 0.30416548, 0.37952420, -0.02676135, -0.13145675, -0.07949606, -0.39952055, 0.14817689, 0.37636954, -0.05066402, -0.24553369, -0.36881655, 0.29735875, 0.25378463, -0.07524057, -0.09196866, 0.30549777, 0.41302657],
          [-0.04561250, 0.19184451, -0.20780566, 0.24620259, 0.01727995, -0.23141640, 0.06998066, 0.29313460, -0.35502416, 0.24379943, 0.20346352, -0.35326070, 0.07167406, -0.22873522, -0.41134089, 0.22244419, -0.15613246, 0.06302779, 0.19529834, -0.12463569],
          [0.28694227, -0.09147874, 0.25912282, 0.21156149, -0.05567093, 0.06764822, 0.01200138, -0.34411156, -0.18121769, -0.05213764, -0.17004436, -0.23604667, 0.08850205, 0.22422086, -0.10656740, 0.05573193, 0.12997770, 0.06344989, -0.16306359, 0.33062717],
          [-0.38478687, 0.18125869, -0.08667676, -0.18609557, -0.05507538, 0.14015584, -0.28486291, 0.26001266, 0.26151565, -0.14811443, -0.15458298, -0.39319420, -0.34723070, 0.39210293, 0.22319184, -0.01083527, 0.06911582, -0.16489382, 0.20895730, 0.06368005],
          [0.39261302, -0.31175599, 0.39929345, 0.17532669, 0.41130796, 0.05157373, -0.19876875, -0.23709413, -0.12663274, -0.15414597, 0.32686481, 0.14254685, 0.15295024, 0.27838963, 0.25021994, -0.36543259, 0.03397285, -0.39235666, -0.34781963, -0.39676648],
          [0.06328133, 0.31625146, -0.19891436, -0.20005281, -0.28806999, 0.18364212, 0.22383952, 0.10949343, 0.26507688, 0.08357500, 0.22326732, -0.39858019, 0.21923156, -0.32484215, -0.09919591, -0.26307601, -0.40642443, 0.04527153, -0.12588124, 0.05497465]
        ],
        "biases": [0.00000000, 0.00000000, 0.00000000, 0.00000000, 0.00000000, 0.00000000, 0.00000000, 0.00000000, 0.00000000, 0.00000000, 0.00000000, 0.00000000, 0.00000000, 0.00000000, 0.00000000]
      },
      {
        "layer_id": 2,
        "input_size": 15,
        "output_size": 5,
        "activation_type": 0,
        "weights": [
          [0.38960952, 0.30194560, -0.53949386, -0.00523981, 0.13611324, -0.52557635, 0.24814904, -0.28595954, -0.32691273, 0.42015451, -0.08677564, -0.29787835, 0.05080705, 0.26153243, 0.22579843],
          [-0.01656443, 0.03124680, 0.03051644, -0.61278462, 0.39864549, 0.16320410, -0.33274651, 0.05543053, 0.37503430, -0.21496201, 0.20670249, 0.15912229, -0.26651856, 0.09107640, 0.05579461],
          [0.12225980, 0.03719794, -0.02778196, -0.48950705, -0.33198360, -0.32515761, 0.07771593, -0.22812808, -0.10301270, -0.11560149, -0.16408111, -0.13641956, 0.12386729, -0.32253152, -0.09796495],
          [0.02919815, -0.25250065, 0.34280452, -0.06022215, -0.12810490, -0.25942305, 0.09934972, 0.22487055, -0.32978630, -0.46499917, -0.23388505, -0.12090784, -0.19894701, -0.17121772, 0.17283323],
          [-0.08162536, -0.32389295, 0.15330300, 0.17582236, 0.25418267, 0.09333245, -0.29678017, -0.11583387, -0.10205390, -0.22824982, -0.14099470, 0.13348114, -0.10363200, -0.11199087, -0.31209436]
        ],
        "biases": [0.00000000, 0.00000000, 0.00000000, 0.00000000, 0.00000000]
      }
    ]
  }
}
