{
  "format": "NEURH5",
  "version": 1,
  "timestamp": 1748793970,
  "metadata": {
    "model_name": "model_2",
    "accuracy": 0.819000,
    "loss": 0.271000,
    "validation_accuracy": 0.838000,
    "validation_loss": 0.294000,
    "epoch": 20,
    "optimizer": "adam",
    "strategy": "standard",
    "learning_rate": 0.001200,
    "batch_size": 32,
    "num_layers": 3
  },
  "architecture": {
    "layer_sizes": [20, 15, 5],
    "activation_types": [0, 0, 0]
  },
  "parameters": {
    "layers": [
      {
        "layer_id": 0,
        "input_size": 10,
        "output_size": 20,
        "activation_type": 0,
        "weights": [
          [0.00927451, 0.24890663, -0.27771601, -0.20107649, -0.26023537, 0.74771243, 0.56291825, -0.01485411, -0.41488460, -0.08947839],
          [-0.02989798, -0.06315210, 0.31363708, -0.36763397, -0.39976376, -0.18042111, 0.58256972, -0.48037538, 0.11639116, 0.16719082],
          [0.56196392, 0.89737511, 0.08175556, 0.45970869, 0.22591752, 0.42169109, -0.95723909, 0.27385882, -0.32846037, -0.46936914],
          [0.07518327, 0.27770323, 0.77495086, 0.30049974, -0.65937901, 0.13208845, -0.18706685, -0.06175183, -0.23748632, -0.22767234],
          [0.19967212, -0.40501773, -0.57697773, 0.24879435, -0.20145130, -0.49056208, 0.01078972, -0.47072002, -0.39795309, -0.14728451],
          [-0.26639274, 0.01592513, -0.52643251, 0.27007464, 0.12464795, -0.32534808, -0.46531895, 0.21037765, -0.43141830, -0.42580745],
          [0.28124338, -0.30113101, -0.25479689, 0.03425631, 0.03529205, -0.63602972, -0.39940688, -0.04552538, -0.63832730, 0.48699719],
          [0.55895531, 0.19742745, -0.13634209, 0.26107910, -0.38419238, 0.06985942, -0.22225519, 0.04956339, 0.30859256, -0.49229321],
          [-0.62481028, 0.07149876, -0.57869005, -0.45511764, 0.19331092, 0.08058015, 0.21992721, -0.59987134, -0.11109503, -0.00473654],
          [-0.49408856, -0.01329068, -0.95680201, -0.60057485, -0.68182063, 0.35923323, 0.62895560, 0.08401357, -1.20893598, -0.50122750],
          [0.72738272, 0.30442345, 0.99365920, -1.03488040, -0.23197536, 0.39012235, -0.34648839, 0.03965623, -0.05886774, 0.84816682],
          [0.34566820, 0.25108761, -0.12123051, -0.09619033, 0.80195004, 0.07687771, -0.27174208, 0.40662047, 0.69798440, -0.00103920],
          [0.07912090, 0.65148312, 0.19914430, -0.85235369, -0.14840935, 0.21974763, -0.04083424, -0.22609793, -0.18782631, -0.18887188],
          [0.47516903, 0.16584049, -0.55584663, 0.14156188, 0.56479537, -0.29671472, -0.02181865, 0.61294615, -0.23841965, -0.31448177],
          [-0.83144295, -0.11696336, 0.23644790, -0.85817760, 0.04663345, 0.15546739, -0.47051388, 0.16142392, 0.00105977, 0.41954073],
          [-0.01017565, -0.53711087, 0.05441783, 0.16494146, -0.07280245, -0.63156396, -0.40433842, -0.30233216, 0.88212991, -0.61026621],
          [0.96016610, 0.29387492, 0.01111260, 0.03723903, -1.04288173, 0.85807306, 0.17594214, -0.04327871, -0.24540992, 0.23420224],
          [0.04096704, 0.62041342, 0.47523785, -0.24826957, 0.07581379, 0.04064180, -0.56896287, -0.31735569, 0.61616421, 0.52907854],
          [0.58802122, -0.23761544, 0.14804570, 0.06992256, 0.30377305, 0.47941607, -0.83078468, 0.35233331, -0.26411796, 0.39593834],
          [0.06284265, -0.28349417, -0.01208015, -0.07582165, 0.06221705, -0.00128843, -0.05515784, -0.65240961, 0.83901805, 0.25002697]
        ],
        "biases": [0.00000000, 0.00000000, 0.00000000, 0.00000000, 0.00000000, 0.00000000, 0.00000000, 0.00000000, 0.00000000, 0.00000000, 0.00000000, 0.00000000, 0.00000000, 0.00000000, 0.00000000, 0.00000000, 0.00000000, 0.00000000, 0.00000000, 0.00000000]
      },
      {
        "layer_id": 1,
        "input_size": 20,
        "output_size": 15,
        "activation_type": 0,
        "weights": [
          [0.23207074, 0.16251856, -0.38200182, -0.21057750, 0.03258369, 0.27443132, -0.03078649, 0.12078332, 0.38485825, 0.19005403, 0.33827880, -0.13672042, 0.05835843, 0.38511613, 0.38401389, 0.07617816, 0.11654920, -0.39184344, -0.00260866, 0.04455225],
          [0.20623331, -0.17373110, -0.09336653, -0.00207219, -0.04785078, -0.16380122, 0.35432461, -0.40796348, -0.15050697, 0.20976567, 0.40026489, -0.05909457, -0.33614340, -0.40936521, 0.30483037, -0.03912159, -0.02192808, -0.05041072, -0.12833948, 0.14325310],
          [-0.39755601, 0.04305263, -0.15485975, -0.07664999, 0.23393314, -0.00359477, 0.03265580, -0.16978124, 0.04583890, 0.30103272, -0.10431249, -0.13748007, -0.28801361, 0.30332935, 0.40409225, -0.32282731, -0.18710162, -0.40203819, 0.06623695, 0.30671084],
          [0.09920948, -0.33669531, 0.25173995, 0.33919740, 0.39653659, 0.21352121, -0.24179932, 0.28929654, -0.27145258, 0.41027832, 0.13622363, -0.12710284, 0.22564274, -0.22269706, 0.04611905, 0.04088485, -0.15398857, -0.34005788, 0.04615103, -0.24945834],
          [-0.08368833, 0.35585821, -0.30379826, -0.00435549, -0.33164227, -0.11371116, 0.06233896, 0.21150932, -0.10503446, 0.14951482, -0.32301608, -0.04713033, 0.35183874, 0.04372324, 0.35115725, 0.18294720, 0.13786693, 0.16527699, -0.39330733, 0.23574446],
          [-0.19977164, 0.29693136, -0.30447352, 0.24022117, -0.31449148, -0.03191453, 0.20732786, 0.00391734, -0.40790468, 0.00971150, 0.08969665, -0.39998361, -0.18175979, -0.05470498, -0.25938436, 0.36176044, 0.35421485, 0.23097382, -0.05606939, -0.00470168],
          [-0.35387686, -0.34749418, 0.10432626, 0.36851588, -0.38222539, 0.17209625, -0.05749750, 0.00753346, -0.08116821, -0.34859574, -0.19186342, -0.10998280, -0.20930472, -0.10586270, 0.30659035, -0.26995048, -0.01465306, -0.33456340, -0.35260203, 0.37680417],
          [-0.19836594, -0.09185410, -0.25304458, 0.09191234, 0.40404731, -0.25068143, 0.06202850, -0.03800332, -0.27330652, -0.11009346, -0.41291785, 0.21722321, -0.12871273, -0.33326313, -0.02915829, 0.15901665, 0.38335508, -0.23151189, 0.12143430, -0.26756474],
          [0.33475482, 0.25769860, 0.28846258, -0.21020938, -0.40553695, 0.05616559, -0.03469759, -0.19481245, 0.01039332, -0.04432321, 0.33072659, -0.37022012, -0.10645180, 0.34262401, 0.02267057, 0.10822292, -0.38610452, 0.39398971, -0.36036703, -0.12134965],
          [0.03440749, 0.28807843, -0.04190593, 0.38183931, -0.03629425, 0.29667944, -0.39867365, 0.30455416, 0.28741610, -0.40856522, -0.32735625, -0.12137593, -0.40730774, 0.10505112, 0.13038012, 0.20211187, 0.11557513, -0.20121327, 0.08168871, -0.01219222],
          [-0.37929705, -0.29570526, 0.20998777, -0.00682866, 0.33374405, -0.16932216, 0.30869880, 0.38753760, -0.32212284, 0.05940165, -0.29964855, 0.18126141, -0.04107752, 0.22784224, 0.30849007, 0.19176850, 0.17081425, -0.07383969, 0.26641762, 0.25942275],
          [0.28389418, 0.02019579, -0.08173442, 0.07212819, -0.04827283, 0.19566245, 0.19834922, -0.18927221, 0.38042453, 0.19984780, 0.15455589, -0.06169013, -0.07162142, 0.28529897, -0.38392985, -0.32008711, 0.32312092, 0.15283079, -0.07283134, -0.17582613],
          [0.30324367, -0.20771182, 0.16732843, 0.13381307, -0.06505993, -0.39829203, 0.09371043, -0.01474032, -0.14497042, -0.31049797, 0.01280546, -0.07883547, -0.06178529, -0.01471737, 0.24072437, -0.13793813, 0.29397115, -0.37255400, -0.41239372, -0.08257349],
          [0.04715664, 0.09052461, 0.26664501, -0.05927851, -0.11499948, -0.06058726, 0.24642815, -0.33178407, -0.01300842, -0.01985702, -0.02118264, 0.05712904, -0.40309742, -0.34662205, -0.14318413, -0.09899591, -0.21416943, 0.11270205, 0.36714396, -0.25359529],
          [-0.05495759, -0.36464083, 0.09199136, 0.07614001, 0.30386627, 0.31938198, 0.24730098, 0.26105899, -0.37074122, 0.24465375, -0.34278807, -0.29567310, -0.07736770, -0.23553079, -0.34987465, -0.15681247, 0.22728728, 0.09005211, -0.22233175, 0.38962880]
        ],
        "biases": [0.00000000, 0.00000000, 0.00000000, 0.00000000, 0.00000000, 0.00000000, 0.00000000, 0.00000000, 0.00000000, 0.00000000, 0.00000000, 0.00000000, 0.00000000, 0.00000000, 0.00000000]
      },
      {
        "layer_id": 2,
        "input_size": 15,
        "output_size": 5,
        "activation_type": 0,
        "weights": [
          [-0.06426926, -0.08561316, 0.02377512, -0.00428276, 0.33205611, -0.42393962, 0.12010420, 0.00511640, 0.39304221, -0.02194133, 0.00114144, -0.36844814, 0.22591685, 0.33107671, -0.09473834],
          [0.13187538, 0.51651448, 0.00653513, -0.57971323, 0.16972066, 0.00359704, -0.38316497, 0.27456707, -0.22215778, -0.68489319, 0.01053179, -0.16236351, -0.17484449, 0.10026731, -0.10539726],
          [-0.16937296, 0.17414956, 0.19322135, 0.30546322, -0.04213079, 0.17097108, -0.26795298, -0.52367377, -0.14319411, 0.08105987, 0.34544399, 0.00450826, 0.03049796, -0.19768560, -0.05315761],
          [0.32357696, -0.34116969, -0.07699990, -0.36339173, -0.09457055, 0.32366678, 0.50912106, -0.23307282, -0.01726433, -0.00830041, -0.32430634, -0.16177405, -0.49761426, 0.03267484, -0.27261591],
          [-0.14015642, -0.12798098, 0.17085467, 0.36822978, 0.04366970, -0.21752425, -0.57135952, -0.20400240, -0.14892375, 0.25144127, 0.03743833, 0.06594335, 0.10523602, -0.07480305, 0.13868725]
        ],
        "biases": [0.00000000, 0.00000000, 0.00000000, 0.00000000, 0.00000000]
      }
    ]
  }
}
