{
  "format": "NEURH5",
  "version": 1,
  "timestamp": 1748793970,
  "metadata": {
    "model_name": "model_8",
    "accuracy": 0.837000,
    "loss": 0.210000,
    "validation_accuracy": 0.796000,
    "validation_loss": 0.268000,
    "epoch": 80,
    "optimizer": "adam",
    "strategy": "standard",
    "learning_rate": 0.001800,
    "batch_size": 32,
    "num_layers": 3
  },
  "architecture": {
    "layer_sizes": [20, 15, 5],
    "activation_types": [0, 0, 0]
  },
  "parameters": {
    "layers": [
      {
        "layer_id": 0,
        "input_size": 10,
        "output_size": 20,
        "activation_type": 0,
        "weights": [
          [0.27358472, 0.13091975, -0.29369864, -0.30920941, -0.28321514, -0.04031350, -0.18906498, -0.10606375, -0.39817879, -0.12617974],
          [-0.03842104, -0.80060762, -0.25284380, 0.07789721, -0.70910591, 0.59226960, -0.20043170, 0.10788481, 0.48449868, 0.14025286],
          [0.10607573, -0.27522695, -0.93400133, -0.50792593, -0.41021767, -0.05232496, -0.51158869, 0.08002897, 0.08322806, 0.44607878],
          [-0.19336373, -0.58049780, -0.42323679, -0.03624708, 0.12032469, 0.09218492, -0.54531789, -0.33958426, 0.44181311, -0.78732872],
          [0.08045121, 0.31657717, -0.03710407, 0.53795630, 0.97447580, -1.06888258, -0.35098356, 0.80844420, -0.47986001, 0.15305331],
          [0.63808233, 0.24241549, 0.25452334, 0.47302833, 0.11733422, -0.00123290, -0.03072841, 0.35201845, -0.50844777, 0.54231834],
          [0.05645762, 0.06677030, -0.43001601, 0.41273519, 0.17852567, -0.00919687, -1.01318276, 0.71912694, -0.04615048, -0.68048406],
          [-0.34111664, -0.45484948, -0.40637389, 0.47706005, -0.28413793, 0.34814036, 0.70475966, 0.25887337, 0.27532357, -0.04955000],
          [-0.05194049, -0.21494389, 0.11815117, -0.61533433, 0.34778854, 0.42394489, 0.08252480, -0.27029333, 0.29573324, 0.65714365],
          [-0.02459759, -0.07515151, -0.40118247, -0.04684942, -0.36160094, 0.66427648, 0.48722595, -0.60979044, -0.68959051, 0.67190307],
          [-0.02746375, -0.02073268, -0.57321250, -0.25467294, 0.18029636, 0.71168441, 0.31519395, -0.30063093, -0.35742578, -0.54308617],
          [0.18323584, -0.44859198, 0.39482254, -0.63196933, -0.85549384, 0.26204187, -0.00213112, 0.13048300, 0.11930057, 0.66550851],
          [0.46322659, 0.07723953, -0.07671639, 0.08762720, 0.27659962, -0.04487916, -0.23989074, 0.03530015, -0.01456856, -0.28285369],
          [0.97305888, -0.19906969, 0.15921549, 0.24908826, -0.19621305, 0.17678006, 0.62733036, 0.57741773, 0.46838954, -0.30848223],
          [-0.55737108, -0.90494329, 0.04269413, -0.08329111, -0.62930626, -0.65209073, -0.32651785, -0.42431441, -0.16885898, -0.09465382],
          [-0.24215838, 0.49126104, -0.09354902, 0.01237774, 0.20384017, -0.00496204, 0.13594741, -0.64989507, -0.62446278, -0.32422087],
          [0.40380752, 1.16432667, 0.37524408, 0.18339658, 0.72096890, -0.41866428, -0.07714818, -0.12984774, 0.28576267, 0.79410809],
          [0.05135571, -0.38412857, -0.37575382, 0.12329517, -0.69895941, 0.05977662, 0.85471511, -0.05438928, 0.28819606, -0.24979083],
          [0.78009558, -0.42614812, -0.15416738, -0.36848509, -0.12146364, 0.28846285, -0.03920731, -0.04804606, -0.71105105, -0.20963453],
          [-0.31573457, -0.27858740, 0.28018650, -0.52499360, 0.21371655, 0.29034078, -0.00107899, -0.01951314, 0.08872435, 0.52382219]
        ],
        "biases": [0.00000000, 0.00000000, 0.00000000, 0.00000000, 0.00000000, 0.00000000, 0.00000000, 0.00000000, 0.00000000, 0.00000000, 0.00000000, 0.00000000, 0.00000000, 0.00000000, 0.00000000, 0.00000000, 0.00000000, 0.00000000, 0.00000000, 0.00000000]
      },
      {
        "layer_id": 1,
        "input_size": 20,
        "output_size": 15,
        "activation_type": 0,
        "weights": [
          [0.27452233, -0.15712634, -0.07963922, -0.32106659, -0.40538359, 0.14941527, -0.34055105, 0.03827479, -0.13314006, -0.21618538, 0.18173553, -0.35347188, -0.16539754, 0.02379093, -0.10795153, -0.02076330, -0.34759685, 0.03449727, 0.14056565, -0.02202137],
          [0.03812637, -0.14314967, -0.34809494, -0.05569225, -0.29084644, -0.10748120, -0.39711070, 0.07490914, 0.31842366, -0.12561871, 0.32705468, 0.02169403, 0.25735620, 0.33046612, 0.22058716, 0.10013597, 0.32919231, 0.34134734, 0.09561503, -0.29857937],
          [-0.06660980, 0.05172130, -0.20277072, 0.40433392, -0.40154269, 0.11314735, 0.39914951, 0.24069579, 0.20985125, 0.18305703, 0.32731938, 0.33070201, 0.04395913, 0.17439955, -0.26510456, 0.27881578, -0.04051435, -0.24403507, -0.02370522, -0.10792129],
          [-0.34075633, -0.09957502, -0.01017803, 0.35010475, -0.11652283, 0.00689932, 0.02563097, 0.17862360, 0.34147477, -0.24641506, -0.27651602, -0.22757202, 0.09246816, -0.19140686, 0.11060254, -0.14018285, -0.16925023, -0.13813205, 0.34718329, -0.36094189],
          [0.15431345, 0.00384321, 0.00253623, 0.39398313, 0.35716134, 0.06779171, -0.06130680, -0.25344393, 0.00485089, 0.37703615, 0.38845763, 0.23511979, 0.06663141, 0.31165993, -0.35719165, 0.25019228, -0.00181697, 0.10132641, -0.36472017, -0.41324160],
          [-0.25566489, -0.05927977, -0.13630204, -0.36259556, -0.31227162, 0.01353827, -0.18351759, 0.21296106, 0.28052494, -0.29755720, -0.27663818, 0.20359570, 0.21178941, -0.36531842, 0.29667839, 0.41202986, -0.23602389, -0.35672048, -0.11128803, 0.21175323],
          [-0.14586928, 0.31592289, 0.07498697, -0.02998897, 0.27526933, -0.02442791, 0.16703869, 0.23232207, 0.24631049, 0.17498276, -0.40022397, -0.08108082, 0.29224253, 0.38561514, -0.33828235, 0.07692163, 0.19075149, -0.36052874, -0.35483840, 0.05358213],
          [-0.39512503, 0.32503918, 0.09805091, 0.06480663, 0.28121451, -0.30131197, 0.37916541, -0.26063463, 0.05044779, -0.07676104, 0.02354103, -0.16785502, 0.12470057, -0.02444953, -0.19599907, -0.05939215, -0.36922807, 0.00569041, 0.40935701, 0.38534236],
          [0.04525441, -0.41335228, 0.36826274, 0.33200967, -0.33580282, 0.34589350, 0.31938890, 0.36335355, -0.19672588, 0.14639771, 0.28432897, -0.12506934, -0.37670094, 0.27700239, 0.12094463, -0.21676987, 0.29505983, -0.29299325, 0.24653797, -0.14246120],
          [-0.36989886, 0.32457647, -0.22578731, 0.27719781, 0.09287170, -0.03371711, -0.27740684, -0.29340425, -0.03666643, -0.16215059, -0.05791402, -0.36870351, -0.28713289, 0.19988827, 0.00699235, -0.06673630, 0.40970078, 0.36682540, 0.18827020, 0.16881151],
          [0.21785638, -0.25232324, -0.20549080, 0.23228860, -0.31603932, -0.37603322, -0.09334810, 0.30762172, -0.32546896, 0.13093385, 0.40003794, 0.26709205, 0.00159276, 0.27106866, -0.23788543, -0.17664093, -0.14177229, -0.38429520, 0.16468273, 0.38322285],
          [0.03013626, -0.28418374, 0.08152771, -0.23396362, 0.31916788, -0.03951758, -0.05287188, -0.08925714, 0.33399227, -0.13786311, -0.10121381, -0.22689395, -0.10440296, -0.00182074, 0.03772983, -0.18280374, -0.21038443, -0.03518443, -0.09646109, 0.15642756],
          [-0.07178997, -0.06340633, 0.06684133, -0.30059788, -0.04033696, 0.25331503, 0.31278533, 0.33935246, -0.30900544, 0.25485188, -0.35613170, -0.15238973, 0.03295130, -0.17215979, -0.18271409, -0.36023036, -0.30811158, 0.37306875, -0.04486816, 0.28027228],
          [-0.40384415, 0.35246524, -0.19144210, 0.34648061, 0.25028345, -0.12579781, -0.19866855, -0.20916386, -0.22312398, 0.32332778, 0.31749186, -0.05350496, 0.03563007, 0.13413092, 0.30807492, -0.16103373, -0.33272719, -0.13080950, 0.03374255, -0.12268953],
          [-0.12688427, -0.24134681, -0.38652447, -0.03911673, 0.05962045, 0.06551056, -0.30905178, 0.30440551, 0.27331057, 0.17839514, -0.18599068, 0.05148059, -0.10833279, 0.19573174, -0.29307634, -0.32197404, 0.07643650, 0.31831202, -0.34631538, 0.04265416]
        ],
        "biases": [0.00000000, 0.00000000, 0.00000000, 0.00000000, 0.00000000, 0.00000000, 0.00000000, 0.00000000, 0.00000000, 0.00000000, 0.00000000, 0.00000000, 0.00000000, 0.00000000, 0.00000000]
      },
      {
        "layer_id": 2,
        "input_size": 15,
        "output_size": 5,
        "activation_type": 0,
        "weights": [
          [0.39352098, -0.06347374, 0.20861939, 0.57587063, 0.65616941, 0.28688633, 0.02070044, 0.11353487, 0.01752965, 0.10130727, -0.07463320, -0.08391894, 0.94717121, -0.01717874, -0.30321339],
          [0.11870747, -0.20855147, 0.10377354, 0.23191471, 0.20723471, -0.07194924, -0.14164814, -0.35094059, -0.22609553, -0.01586292, -0.02691548, -0.13653617, -0.12610319, -0.15149315, -0.02678268],
          [-0.26560718, -0.10780110, 0.10930649, 0.11490157, 0.32669136, 0.25626105, -0.40522015, -0.23913580, 0.00546321, -0.07506039, 0.22296606, -0.16585959, 0.01648633, -0.12161748, -0.56307715],
          [0.15648781, -0.06492735, 0.47827661, 0.12768462, -0.38427263, -0.07330624, -0.24129337, -0.48841146, 0.14766070, 0.25789833, -0.15897219, -0.17918649, -0.55959177, 0.18326701, -0.15681359],
          [-0.09961218, 0.05237283, -0.18564124, 0.19716696, 0.00735825, -0.17397283, 0.28809524, 0.10839022, 0.22559811, -0.10833886, 0.18633103, 0.25817603, 0.19595508, 0.00054737, 0.05262747]
        ],
        "biases": [0.00000000, 0.00000000, 0.00000000, 0.00000000, 0.00000000]
      }
    ]
  }
}
