{
  "format": "NEURH5",
  "version": 1,
  "timestamp": 1748793970,
  "metadata": {
    "model_name": "model_9",
    "accuracy": 0.805000,
    "loss": 0.197000,
    "validation_accuracy": 0.800000,
    "validation_loss": 0.248000,
    "epoch": 90,
    "optimizer": "adam",
    "strategy": "standard",
    "learning_rate": 0.001900,
    "batch_size": 32,
    "num_layers": 3
  },
  "architecture": {
    "layer_sizes": [20, 15, 5],
    "activation_types": [0, 0, 0]
  },
  "parameters": {
    "layers": [
      {
        "layer_id": 0,
        "input_size": 10,
        "output_size": 20,
        "activation_type": 0,
        "weights": [
          [0.46027651, 0.36811846, 0.58275265, 1.34249032, -1.02185678, -0.59654599, -0.41988024, 0.51902330, -0.50017321, 0.26246592],
          [0.38190508, -0.08273080, -0.00508162, -0.25918019, 0.14172079, -0.74109185, -0.40880263, 0.05932172, -0.01377100, -0.57673174],
          [0.05224488, 0.69960034, -0.51559252, 0.64197594, -0.26430833, -0.02075545, 0.24961610, 0.99853539, 0.19185145, 0.30949005],
          [0.15126249, -0.27294138, 0.28789052, -0.53537726, -0.72495532, 0.51612896, 0.62127936, 0.69000053, -0.97748846, -0.11939047],
          [-0.27851489, 0.51784927, -0.13469537, -0.77298903, 0.10090567, -0.24283582, 0.36967695, 0.08419178, 0.04567493, 0.13307250],
          [0.19369493, 0.63197052, 0.18738988, 0.27592126, -0.31308168, 0.47600341, 0.57999837, 0.14870873, 0.43160963, -0.33045703],
          [0.40498906, -1.05946779, 0.00798623, -0.66686809, -0.24470133, -0.41935664, 0.56520391, 0.24894309, -0.44036984, 0.38595697],
          [1.05887401, -0.28157455, 0.35005087, 0.01027839, 0.38464940, 0.13753237, -0.35042804, 0.13482487, 0.02830474, -0.60449284],
          [-0.14188014, -0.80525732, -0.15086776, 0.29204768, -0.69748527, -0.52937567, -0.42160508, 0.10471316, -0.06132300, -0.55033249],
          [0.44238687, -0.39695525, 0.71486193, 0.21524380, 0.20265788, 0.51324224, -0.02599418, 0.31601152, 0.18387678, 0.49689806],
          [-0.38453785, -0.47009835, 0.83029711, 0.09895664, -0.00117611, -0.11914257, -0.18798773, 0.22327760, 0.49517202, 0.93287855],
          [-0.40837058, -0.52684796, -0.28776863, 0.25205302, 0.14624970, -0.16791166, -0.13401240, 0.97340572, 0.38749835, -0.24828970],
          [-0.40438685, 0.60815966, 0.22348644, -0.25134313, 0.05090489, -0.27874097, -0.26324889, -0.13764343, -1.15504026, 0.16649580],
          [-0.00860799, 0.05376882, 0.09585273, 0.29263699, 0.17683469, -0.13375656, -0.23121749, -0.20460980, 0.12809862, -0.31282809],
          [0.30179557, -0.17122997, 0.30203092, -0.05265300, -0.63863933, 0.34221706, 0.48422492, 0.43407595, 0.25409135, -0.35827392],
          [0.19081500, 0.21401215, -0.60924006, -0.47626913, 0.03518505, -0.13640429, 0.83134502, -0.02966283, 0.23370244, -0.55071026],
          [1.11550260, 0.57286668, -0.46818650, 0.27986503, -0.18485077, 0.27333310, 0.26387140, 0.23934515, -0.30661178, -0.15406293],
          [0.12928741, 0.08829179, 0.28062204, 0.46581858, -0.85473770, -1.16390228, 0.22521584, 0.35846508, -0.11861653, -0.14991863],
          [0.12585159, -0.55397248, -0.04321456, 0.03347502, -0.01503652, 1.20729506, 0.31064251, -0.03749126, -0.13583507, -0.54374874],
          [-0.16526352, -0.06612421, 0.75469178, -0.62292463, -0.17355904, -0.72026169, 0.32239032, 0.15827464, -0.22684342, 0.75592238]
        ],
        "biases": [0.00000000, 0.00000000, 0.00000000, 0.00000000, 0.00000000, 0.00000000, 0.00000000, 0.00000000, 0.00000000, 0.00000000, 0.00000000, 0.00000000, 0.00000000, 0.00000000, 0.00000000, 0.00000000, 0.00000000, 0.00000000, 0.00000000, 0.00000000]
      },
      {
        "layer_id": 1,
        "input_size": 20,
        "output_size": 15,
        "activation_type": 0,
        "weights": [
          [0.16707295, -0.01949889, 0.20118712, 0.30617827, 0.25708854, -0.02771200, -0.37521312, -0.38769448, 0.17018262, 0.07569421, 0.26381150, 0.34683606, -0.39992303, 0.00860111, -0.35508597, 0.03372379, 0.38960978, -0.27488452, -0.13313678, -0.16102038],
          [-0.10837962, 0.23653629, -0.14061899, -0.04682360, -0.28963694, 0.34671584, 0.06351934, 0.17610411, 0.22828420, 0.28410575, 0.26349548, 0.00344188, -0.11805070, -0.00150486, 0.37827897, -0.25358969, 0.03925453, -0.22815172, 0.28623277, 0.40486056],
          [0.16916294, 0.32740745, 0.15421329, -0.02347788, 0.40090525, -0.06121507, -0.36787847, 0.33018944, -0.28998813, 0.24042462, -0.20762016, 0.05162363, -0.18791443, 0.01431017, 0.36834919, 0.12928651, 0.03981010, 0.00073987, 0.01340219, 0.01329613],
          [-0.11318842, -0.26109987, -0.31636494, -0.05240431, 0.31640181, -0.15615702, -0.34932274, 0.01038143, -0.24406946, 0.22624929, 0.03418420, -0.15258904, -0.00436107, 0.40269095, 0.13959356, 0.20229623, -0.09832320, 0.32714877, -0.05305825, 0.09071395],
          [0.13659589, 0.33319834, -0.23181146, 0.05507696, -0.11335751, 0.20930403, 0.09441106, 0.16767383, 0.14192593, -0.34538156, 0.00357327, -0.39339933, 0.34541556, -0.26035213, -0.17043909, -0.24574623, 0.19942980, -0.24566020, -0.01079818, -0.13566069],
          [-0.34846854, 0.28966799, 0.17554341, -0.08616108, 0.20057987, 0.03743053, -0.24450134, -0.40755612, 0.07141449, 0.37741226, 0.08502848, -0.19028904, -0.14809927, 0.10014682, -0.31637919, -0.29159302, -0.23439227, -0.26018542, 0.14717755, 0.14251699],
          [-0.34897861, -0.00201114, 0.15002789, 0.01927853, 0.23519343, -0.35183278, 0.05674934, -0.16042623, -0.05930681, 0.23724876, 0.24088034, -0.00063814, 0.03974504, -0.26419619, -0.18747622, -0.07315873, 0.11809453, -0.08959753, 0.40932032, -0.23098646],
          [-0.15650895, 0.35995662, -0.15139465, 0.19597463, -0.35122153, 0.39309233, 0.29075879, 0.29032114, 0.38756317, 0.10700661, -0.12721261, 0.03689022, -0.21747065, 0.11015057, -0.28347754, 0.35756418, 0.21431494, -0.15088399, -0.33045736, -0.07304414],
          [0.38783830, -0.23747009, 0.17943415, -0.11306522, 0.15352975, 0.08129390, -0.02344720, 0.08847539, -0.22342442, 0.24279682, -0.08571602, 0.22776367, -0.18383308, -0.12076373, -0.05503486, -0.00695408, -0.11796252, -0.17586781, -0.39766666, -0.16078083],
          [-0.22286284, -0.25572973, -0.32134479, -0.11257224, 0.15806188, 0.06972864, 0.19819562, -0.28680572, -0.09748019, -0.41011292, 0.15918966, -0.02161168, 0.29927644, 0.18864833, -0.10105332, -0.01361248, -0.23522197, -0.12797694, -0.38810104, -0.03833643],
          [-0.07527001, 0.24103142, 0.05444578, 0.04356456, 0.16784322, -0.32324791, 0.19695690, -0.40406880, -0.11072966, -0.34050608, -0.03354063, 0.20436332, -0.13647652, 0.01710883, 0.20504078, -0.34312725, -0.19949611, -0.04042931, 0.35699782, -0.19571637],
          [-0.27650720, -0.07863561, -0.01525717, 0.27721065, 0.30824980, 0.29363346, -0.25117949, -0.02855635, 0.33895084, 0.39319149, 0.30124909, 0.22017281, -0.23955548, -0.09075839, -0.05549346, -0.26192027, -0.02806520, 0.31295818, -0.06800570, -0.22326292],
          [-0.35560384, -0.38993138, -0.16216443, -0.29099131, -0.05818460, 0.05253881, 0.28820741, -0.35812932, 0.22460076, -0.34598523, -0.20510991, 0.00945529, -0.07572807, -0.00466069, 0.33527723, -0.07109991, -0.05868414, -0.06284825, 0.33797508, -0.27258489],
          [-0.40251282, 0.36973310, 0.20195808, 0.01449659, 0.18939565, 0.03804172, 0.09046771, 0.13802068, 0.26509178, 0.33409873, -0.00467088, 0.16396245, -0.12897581, 0.21368177, -0.02772715, 0.19790249, -0.24536707, -0.05255436, 0.27870598, -0.22962983],
          [0.28609708, -0.21960600, -0.17094815, 0.30745816, 0.23807767, 0.09545092, 0.25550526, -0.13949758, -0.24498777, -0.30230266, 0.29010800, 0.11780865, 0.07379124, -0.25246972, -0.18364058, -0.19792262, -0.09325084, 0.28616139, 0.03391081, 0.22073391]
        ],
        "biases": [0.00000000, 0.00000000, 0.00000000, 0.00000000, 0.00000000, 0.00000000, 0.00000000, 0.00000000, 0.00000000, 0.00000000, 0.00000000, 0.00000000, 0.00000000, 0.00000000, 0.00000000]
      },
      {
        "layer_id": 2,
        "input_size": 15,
        "output_size": 5,
        "activation_type": 0,
        "weights": [
          [0.41102529, -0.13865845, -0.20285401, -0.02352776, -0.02632212, 0.45336205, 0.24942537, 0.10522877, -0.22385344, 0.02339111, 0.31055385, 0.20130232, -0.01825857, 0.07203069, -0.00241098],
          [-0.01759496, 0.50351954, 0.23934230, -0.30664027, -0.10794499, -0.22333565, 0.07066943, -0.08382874, -0.09997908, -0.06127892, 0.10109574, -0.31808767, -0.24133024, 0.33440924, -0.16867012],
          [-0.16480681, 0.10559681, -0.01305785, 0.05712903, -0.18427299, -0.26093546, 0.06353062, -0.11787972, -0.13696343, -0.01681423, -0.20174347, -0.07343552, -0.20544076, -0.35458735, -0.43095464],
          [0.03336218, -0.47093725, 0.34700841, -0.08087740, -0.19757640, -0.25970140, 0.17470990, -0.01186415, -0.05069722, 0.11368389, -0.10721209, -0.19192831, -0.40028560, 0.01439754, 0.17962407],
          [0.19165924, 0.19259073, 0.10661519, 0.30534708, 0.49197125, 0.10305193, 0.00013356, -0.20844088, -0.15573330, 0.51861864, 0.41476187, -0.04966786, -0.29566666, 0.04469825, 0.29885927]
        ],
        "biases": [0.00000000, 0.00000000, 0.00000000, 0.00000000, 0.00000000]
      }
    ]
  }
}
